{"learner":{"attributes":{"scikit_learn":"{\"_estimator_type\": \"classifier\"}"},"feature_names":["h_mgr_ppg","a_mgr_ppg","mgr_ppg_diff","h_mgr_win_rate","a_mgr_win_rate","mgr_win_rate_diff","h_mgr_style","a_mgr_style","mgr_style_diff","mgr_h2h_meetings","mgr_h2h_home_wins","mgr_h2h_away_wins"],"feature_types":["float","float","float","float","float","float","float","float","float","int","int","int"],"gradient_booster":{"model":{"cats":{"enc":[],"feature_segments":[],"sorted_idx":[]},"gbtree_model_param":{"num_parallel_tree":"1","num_trees":"360"},"iteration_indptr":[0,3,6,9,12,15,18,21,24,27,30,33,36,39,42,45,48,51,54,57,60,63,66,69,72,75,78,81,84,87,90,93,96,99,102,105,108,111,114,117,120,123,126,129,132,135,138,141,144,147,150,153,156,159,162,165,168,171,174,177,180,183,186,189,192,195,198,201,204,207,210,213,216,219,222,225,228,231,234,237,240,243,246,249,252,255,258,261,264,267,270,273,276,279,282,285,288,291,294,297,300,303,306,309,312,315,318,321,324,327,330,333,336,339,342,345,348,351,354,357,360],"tree_info":[0,1,2,0,1,2,0,1,2,0,1,2,0,1,2,0,1,2,0,1,2,0,1,2,0,1,2,0,1,2,0,1,2,0,1,2,0,1,2,0,1,2,0,1,2,0,1,2,0,1,2,0,1,2,0,1,2,0,1,2,0,1,2,0,1,2,0,1,2,0,1,2,0,1,2,0,1,2,0,1,2,0,1,2,0,1,2,0,1,2,0,1,2,0,1,2,0,1,2,0,1,2,0,1,2,0,1,2,0,1,2,0,1,2,0,1,2,0,1,2,0,1,2,0,1,2,0,1,2,0,1,2,0,1,2,0,1,2,0,1,2,0,1,2,0,1,2,0,1,2,0,1,2,0,1,2,0,1,2,0,1,2,0,1,2,0,1,2,0,1,2,0,1,2,0,1,2,0,1,2,0,1,2,0,1,2,0,1,2,0,1,2,0,1,2,0,1,2,0,1,2,0,1,2,0,1,2,0,1,2,0,1,2,0,1,2,0,1,2,0,1,2,0,1,2,0,1,2,0,1,2,0,1,2,0,1,2,0,1,2,0,1,2,0,1,2,0,1,2,0,1,2,0,1,2,0,1,2,0,1,2,0,1,2,0,1,2,0,1,2,0,1,2,0,1,2,0,1,2,0,1,2,0,1,2,0,1,2,0,1,2,0,1,2,0,1,2,0,1,2,0,1,2,0,1,2,0,1,2,0,1,2,0,1,2,0,1,2,0,1,2,0,1,2,0,1,2,0,1,2,0,1,2,0,1,2,0,1,2,0,1,2,0,1,2,0,1,2,0,1,2,0,1,2,0,1,2,0,1,2],"trees":[{"base_weights":[-9.712299E-8,3.4458745E-1,-2.3213938E-1,5.854152E-1,2.05846E-1,-3.5184037E-2,-3.361827E-1,4.3140224E-1,7.427887E-1,-7.856493E-2,2.612114E-1,-9.575237E-3,-3.0698055E-1,-1.7309208E-1,-4.1929916E-1,4.2754043E-2,2.431833E-2,6.34364E-2,-2.1921669E-3,3.6559242E-4,-4.6477158E-2,1.0630838E-2,2.9795056E-2,1.0670533E-3,-2.6678728E-2,-3.2873273E-2,2.8192997E-2,-2.0619107E-2,-7.5701475E-3,-4.5117315E-2,-2.88526E-2],"categories":[],"categories_nodes":[],"categories_segments":[],"categories_sizes":[],"default_left":[0,0,0,0,0,0,0,0,0,0,0,0,0,0,0,0,0,0,0,0,0,0,0,0,0,0,0,0,0,0,0],"id":0,"left_children":[1,3,5,7,9,11,13,15,17,19,21,23,25,27,29,-1,-1,-1,-1,-1,-1,-1,-1,-1,-1,-1,-1,-1,-1,-1,-1],"loss_changes":[1.5707458E2,2.6288307E1,2.403009E1,6.6687164E0,7.941345E0,2.8275685E0,1.0332382E1,1.7820206E0,5.4788513E0,3.4582076E0,5.96364E0,2.7703922E0,2.5424304E0,1.7079911E0,4.104126E0,0E0,0E0,0E0,0E0,0E0,0E0,0E0,0E0,0E0,0E0,0E0,0E0,0E0,0E0,0E0,0E0],"parents":[2147483647,0,0,1,1,2,2,3,3,4,4,5,5,6,6,7,7,8,8,9,9,10,10,11,11,12,12,13,13,14,14],"right_children":[2,4,6,8,10,12,14,16,18,20,22,24,26,28,30,-1,-1,-1,-1,-1,-1,-1,-1,-1,-1,-1,-1,-1,-1,-1,-1],"split_conditions":[-1.6E-1,-8E-1,1.6E-1,6.5E-1,-2.5E-1,5.4E-1,1.56E0,7.5E-1,3E0,2.15E0,1.57E0,7.7E1,7.5E-1,1.4E-1,1E0,4.2754043E-2,2.431833E-2,6.34364E-2,-2.1921669E-3,3.6559242E-4,-4.6477158E-2,1.0630838E-2,2.9795056E-2,1.0670533E-3,-2.6678728E-2,-3.2873273E-2,2.8192997E-2,-2.0619107E-2,-7.5701475E-3,-4.5117315E-2,-2.88526E-2],"split_indices":[2,2,2,4,8,3,0,7,1,1,1,9,8,5,1,0,0,0,0,0,0,0,0,0,0,0,0,0,0,0,0],"split_type":[0,0,0,0,0,0,0,0,0,0,0,0,0,0,0,0,0,0,0,0,0,0,0,0,0,0,0,0,0,0,0],"sum_hessian":[1.9616212E3,7.893805E2,1.1722407E3,2.8736032E2,5.0202017E2,4.0565985E2,7.6658093E2,1.471216E2,1.4023871E2,8.173422E1,4.2028595E2,3.716756E2,3.3984226E1,2.598288E2,5.0675217E2,7.958332E1,6.753828E1,1.3163512E2,8.603602E0,7.097971E1,1.0754502E1,1.9616212E2,2.2412384E2,3.4801572E2,2.3659906E1,2.9682426E1,4.301801E0,1.2389187E2,1.359369E2,1.4368016E2,3.6307202E2],"tree_param":{"num_deleted":"0","num_feature":"12","num_nodes":"31","size_leaf_vector":"1"}},{"base_weights":[-7.718684E-7,4.1674383E-2,-2.2791669E-1,3.8083375E-2,9.6925735E-1,-1.4117037E-1,-3.93824E-1,-6.9297984E-2,6.0702235E-2,9.181223E-2,1.1196517E-2,-1.9359319E-1,3.538745E-1,-3.0315727E-1,-4.7327235E-2,-7.5119357E-3,5.13756E-2,4.4553056E-3,3.3968758E-2,-2.0987134E-2,7.5938567E-3,8.697371E-2,2.8191125E-3,-1.7030029E-2,-3.5927217E-2],"categories":[],"categories_nodes":[],"categories_segments":[],"categories_sizes":[],"default_left":[0,0,0,0,0,0,0,0,0,0,0,0,0,0,0,0,0,0,0,0,0,0,0,0,0],"id":1,"left_children":[1,3,5,7,9,11,13,15,17,-1,-1,19,21,23,-1,-1,-1,-1,-1,-1,-1,-1,-1,-1,-1],"loss_changes":[1.5646392E1,4.601836E0,3.609208E0,3.376139E0,6.278634E-1,4.4484525E0,1.3783274E0,4.2964544E0,2.0684109E0,0E0,0E0,3.0646892E0,3.8203816E0,7.1618176E-1,0E0,0E0,0E0,0E0,0E0,0E0,0E0,0E0,0E0,0E0,0E0],"parents":[2147483647,0,0,1,1,2,2,3,3,4,4,5,5,6,6,7,7,8,8,11,11,12,12,13,13],"right_children":[2,4,6,8,10,12,14,16,18,-1,-1,20,22,24,-1,-1,-1,-1,-1,-1,-1,-1,-1,-1,-1],"split_conditions":[2.7E-1,2.56E0,2.22E0,-8E-1,2.8E0,7.5E-1,1.55E0,3E0,9.1E1,9.181223E-2,1.1196517E-2,1.3E0,1.4E-1,5E-1,-4.7327235E-2,-7.5119357E-3,5.13756E-2,4.4553056E-3,3.3968758E-2,-2.0987134E-2,7.5938567E-3,8.697371E-2,2.8191125E-3,-1.7030029E-2,-3.5927217E-2],"split_indices":[5,0,0,2,0,8,2,1,9,0,0,2,4,6,0,0,0,0,0,0,0,0,0,0,0],"split_type":[0,0,0,0,0,0,0,0,0,0,0,0,0,0,0,0,0,0,0,0,0,0,0,0,0],"sum_hessian":[1.6452606E3,1.3916163E3,2.5364435E2,1.3872866E3,4.329633E0,1.6777328E2,8.5871056E1,2.4101625E2,1.1462704E3,3.2472248E0,1.0824083E0,1.5225877E2,1.5514519E1,6.0614864E1,2.5256193E1,2.338002E2,7.2160554E0,1.1318383E3,1.4432111E1,1.23033745E2,2.9225025E1,3.9688306E0,1.1545689E1,3.8966698E1,2.1648167E1],"tree_param":{"num_deleted":"0","num_feature":"12","num_nodes":"25","size_leaf_vector":"1"}},{"base_weights":[7.029709E-7,-1.6938141E-1,4.0795636E-1,-3.9758676E-1,-2.9573526E-2,7.612905E-2,5.065177E-1,-6.448745E-1,-3.5374624E-1,-1.6881558E-1,1.6881447E-2,4.6621335E-1,2.1244239E-2,3.7816828E-1,6.368918E-1,-5.3620264E-2,5.9646606E-3,-1.522926E-2,-3.18485E-2,-1.849245E-3,-1.7287996E-2,4.948368E-2,6.669191E-4,-9.760207E-3,5.04941E-2,-5.9469018E-2,4.239595E-3,3.124446E-2,-5.1864497E-2,5.3238794E-2,2.296999E-2],"categories":[],"categories_nodes":[],"categories_segments":[],"categories_sizes":[],"default_left":[0,0,0,0,0,0,0,0,0,0,0,0,0,0,0,0,0,0,0,0,0,0,0,0,0,0,0,0,0,0,0],"id":2,"left_children":[1,3,5,7,9,11,13,15,17,19,21,23,25,27,29,-1,-1,-1,-1,-1,-1,-1,-1,-1,-1,-1,-1,-1,-1,-1,-1],"loss_changes":[1.5615277E2,5.0934193E1,2.1644737E1,6.3475723E0,6.41481E0,3.2658901E0,8.309677E0,1.6954842E0,3.6742477E0,1.704042E0,3.8208776E0,1.9036374E0,3.3211432E0,3.5586205E0,2.3294754E0,0E0,0E0,0E0,0E0,0E0,0E0,0E0,0E0,0E0,0E0,0E0,0E0,0E0,0E0,0E0,0E0],"parents":[2147483647,0,0,1,1,2,2,3,3,4,4,5,5,6,6,7,7,8,8,9,9,10,10,11,11,12,12,13,13,14,14],"right_children":[2,4,6,8,10,12,14,16,18,20,22,24,26,28,30,-1,-1,-1,-1,-1,-1,-1,-1,-1,-1,-1,-1,-1,-1,-1,-1],"split_conditions":[4E-1,-4.5E-1,1.57E0,-1.34E0,-2.1E-1,1.2E-1,8.9E-1,1.41E0,0E0,2.5E-1,8E-2,2.5E-1,2.3E-1,2.12E0,5E-1,-5.3620264E-2,5.9646606E-3,-1.522926E-2,-3.18485E-2,-1.849245E-3,-1.7287996E-2,4.948368E-2,6.669191E-4,-9.760207E-3,5.04941E-2,-5.9469018E-2,4.239595E-3,3.124446E-2,-5.1864497E-2,5.3238794E-2,2.296999E-2],"split_indices":[2,2,0,2,2,5,2,0,8,6,3,6,3,1,8,0,0,0,0,0,0,0,0,0,0,0,0,0,0,0,0],"split_type":[0,0,0,0,0,0,0,0,0,0,0,0,0,0,0,0,0,0,0,0,0,0,0,0,0,0,0,0,0,0,0],"sum_hessian":[2.257796E3,1.5958062E3,6.619897E2,6.055448E2,9.902613E2,1.5200511E2,5.099846E2,8.912352E1,5.1642126E2,2.470702E2,7.431911E2,1.7824703E1,1.341804E2,2.5895334E2,2.5103125E2,8.615273E1,2.970784E0,1.11404396E2,4.0501688E2,6.090107E1,1.8616913E2,9.407482E0,7.337836E2,3.9610453E0,1.3863659E1,4.456176E0,1.2972423E2,2.564777E2,2.4756532E0,2.3122601E2,1.9805225E1],"tree_param":{"num_deleted":"0","num_feature":"12","num_nodes":"31","size_leaf_vector":"1"}},{"base_weights":[-1.3959172E-4,3.1644416E-1,-2.2100239E-1,5.355981E-1,1.8920258E-1,-1.2429063E-1,-4.1508287E-1,3.940754E-1,6.78964E-1,-6.8391827E-3,2.5980163E-1,-3.31823E-2,-2.2232452E-1,-2.1941598E-1,-4.4761458E-1,3.34587E-2,-5.027846E-3,5.7208985E-2,-1.4344152E-2,4.1082585E-3,-4.217528E-2,9.005299E-3,3.0711304E-2,-5.163159E-4,-2.5634E-2,4.324351E-3,-2.1541452E-2,-2.4880022E-2,1.0140813E-2,-4.3481637E-2,-2.9899694E-2],"categories":[],"categories_nodes":[],"categories_segments":[],"categories_sizes":[],"default_left":[0,0,0,0,0,0,0,0,0,0,0,0,0,0,0,0,0,0,0,0,0,0,0,0,0,0,0,0,0,0,0],"id":3,"left_children":[1,3,5,7,9,11,13,15,17,19,21,23,25,27,29,-1,-1,-1,-1,-1,-1,-1,-1,-1,-1,-1,-1,-1,-1,-1,-1],"loss_changes":[1.3725378E2,2.2393303E1,2.1651798E1,5.73349E0,7.0867615E0,6.8982353E0,2.3469315E0,1.6955929E0,4.643753E0,4.1607637E0,6.8336563E0,3.0835981E0,4.8441925E0,1.8377795E0,2.1234436E0,0E0,0E0,0E0,0E0,0E0,0E0,0E0,0E0,0E0,0E0,0E0,0E0,0E0,0E0,0E0,0E0],"parents":[2147483647,0,0,1,1,2,2,3,3,4,4,5,5,6,6,7,7,8,8,9,9,10,10,11,11,12,12,13,13,14,14],"right_children":[2,4,6,8,10,12,14,16,18,20,22,24,26,28,30,-1,-1,-1,-1,-1,-1,-1,-1,-1,-1,-1,-1,-1,-1,-1,-1],"split_conditions":[-1.5E-1,-8E-1,6.5E-1,6.5E-1,0E0,1.6E-1,1.56E0,2.12E0,1.62E0,5.3E-1,1.57E0,5.4E-1,1.6E-1,4.5E-1,1E0,3.34587E-2,-5.027846E-3,5.7208985E-2,-1.4344152E-2,4.1082585E-3,-4.217528E-2,9.005299E-3,3.0711304E-2,-5.163159E-4,-2.5634E-2,4.324351E-3,-2.1541452E-2,-2.4880022E-2,1.0140813E-2,-4.3481637E-2,-2.9899694E-2],"split_indices":[2,2,2,4,8,2,0,1,0,3,1,3,4,3,1,0,0,0,0,0,0,0,0,0,0,0,0,0,0,0,0],"split_type":[0,0,0,0,0,0,0,0,0,0,0,0,0,0,0,0,0,0,0,0,0,0,0,0,0,0,0,0,0,0,0],"sum_hessian":[1.9609677E3,8.056787E2,1.155289E3,2.947713E2,5.1090738E2,7.721575E2,3.8313147E2,1.5022571E2,1.4454561E2,1.3551314E2,3.7539423E2,4.0090903E2,3.7124847E2,5.5722828E1,3.2740863E2,1.4276228E2,7.463424E0,1.3886377E2,5.6818504E0,1.2269331E2,1.2819829E1,1.7255763E2,2.028366E2,3.6771506E2,3.3193954E1,5.388007E1,3.173684E2,4.4145355E1,1.1577474E1,1.3968842E2,1.8772021E2],"tree_param":{"num_deleted":"0","num_feature":"12","num_nodes":"31","size_leaf_vector":"1"}},{"base_weights":[1.8278866E-4,3.907731E-2,-2.1652703E-1,3.563724E-2,8.971031E-1,-1.3188289E-1,-3.8053074E-1,-6.697592E-2,5.711793E-2,8.567156E-2,9.261383E-3,-1.8303846E-1,3.388093E-1,-2.8993714E-1,-4.644788E-2,-7.244539E-3,4.726562E-2,6.1865575E-3,-1.7179006E-3,-2.0074992E-2,7.823669E-3,8.106327E-2,2.789657E-3,-1.600527E-2,-3.493246E-2],"categories":[],"categories_nodes":[],"categories_segments":[],"categories_sizes":[],"default_left":[0,0,0,0,0,0,0,0,0,0,0,0,0,0,0,0,0,0,0,0,0,0,0,0,0],"id":4,"left_children":[1,3,5,7,9,11,13,15,17,-1,-1,19,21,23,-1,-1,-1,-1,-1,-1,-1,-1,-1,-1,-1],"loss_changes":[1.3880894E1,4.089264E0,3.4285488E0,3.071422E0,6.27511E-1,4.0787425E0,1.3682213E0,3.7974029E0,1.8307414E0,0E0,0E0,2.9060407E0,3.3889055E0,7.0841026E-1,0E0,0E0,0E0,0E0,0E0,0E0,0E0,0E0,0E0,0E0,0E0],"parents":[2147483647,0,0,1,1,2,2,3,3,4,4,5,5,6,6,7,7,8,8,11,11,12,12,13,13],"right_children":[2,4,6,8,10,12,14,16,18,-1,-1,20,22,24,-1,-1,-1,-1,-1,-1,-1,-1,-1,-1,-1],"split_conditions":[2.7E-1,2.56E0,2.22E0,-8E-1,5E-1,7.5E-1,1.55E0,3E0,3.6E-1,8.567156E-2,9.261383E-3,1.3E0,1.4E-1,5E-1,-4.644788E-2,-7.244539E-3,4.726562E-2,6.1865575E-3,-1.7179006E-3,-2.0074992E-2,7.823669E-3,8.106327E-2,2.789657E-3,-1.600527E-2,-3.493246E-2],"split_indices":[5,0,0,2,7,8,2,1,2,0,0,2,4,6,0,0,0,0,0,0,0,0,0,0,0],"split_type":[0,0,0,0,0,0,0,0,0,0,0,0,0,0,0,0,0,0,0,0,0,0,0,0,0],"sum_hessian":[1.6448323E3,1.3952382E3,2.4959409E2,1.390704E3,4.534198E0,1.6581783E2,8.377627E1,2.4036478E2,1.1503392E3,3.4060092E0,1.1281883E0,1.5011429E2,1.5703528E1,5.9350636E1,2.4425632E1,2.3287881E2,7.4859586E0,9.1501135E2,2.3532782E2,1.20972534E2,2.9141762E1,4.1531806E0,1.1550348E1,3.8271408E1,2.107923E1],"tree_param":{"num_deleted":"0","num_feature":"12","num_nodes":"25","size_leaf_vector":"1"}},{"base_weights":[-1.1925656E-5,-1.5900141E-1,3.8037127E-1,-3.618827E-1,-1.9665787E-2,7.0727445E-2,4.7195238E-1,-6.113271E-1,-3.214833E-1,1.6612593E-2,-1.7989242E-1,4.4231805E-1,1.8292677E-2,3.5272998E-1,5.9279525E-1,-5.088212E-2,6.427486E-3,-1.46399075E-2,-2.8800597E-2,1.8322436E-2,-2.9608182E-4,-8.332604E-3,-3.0440783E-2,-9.760247E-3,4.8013475E-2,-5.791337E-2,3.9156345E-3,2.9164111E-2,-5.0588544E-2,4.957874E-2,2.1037195E-2],"categories":[],"categories_nodes":[],"categories_segments":[],"categories_sizes":[],"default_left":[0,0,0,0,0,0,0,0,0,0,0,0,0,0,0,0,0,0,0,0,0,0,0,0,0,0,0,0,0,0,0],"id":5,"left_children":[1,3,5,7,9,11,13,15,17,19,21,23,25,27,29,-1,-1,-1,-1,-1,-1,-1,-1,-1,-1,-1,-1,-1,-1,-1,-1],"loss_changes":[1.3659969E2,4.5022312E1,1.884687E1,6.33873E0,5.4984164E0,2.9758487E0,7.191101E0,1.5763817E0,2.9229126E0,3.331073E0,2.613554E0,1.7563431E0,3.112504E0,3.270214E0,2.0905304E0,0E0,0E0,0E0,0E0,0E0,0E0,0E0,0E0,0E0,0E0,0E0,0E0,0E0,0E0,0E0,0E0],"parents":[2147483647,0,0,1,1,2,2,3,3,4,4,5,5,6,6,7,7,8,8,9,9,10,10,11,11,12,12,13,13,14,14],"right_children":[2,4,6,8,10,12,14,16,18,20,22,24,26,28,30,-1,-1,-1,-1,-1,-1,-1,-1,-1,-1,-1,-1,-1,-1,-1,-1],"split_conditions":[4E-1,-4E-1,1.57E0,-1.34E0,5E-1,1.2E-1,8.9E-1,1.41E0,0E0,1.8E-1,1E0,2.5E-1,2.3E-1,2.12E0,5E-1,-5.088212E-2,6.427486E-3,-1.46399075E-2,-2.8800597E-2,1.8322436E-2,-2.9608182E-4,-8.332604E-3,-3.0440783E-2,-9.760247E-3,4.8013475E-2,-5.791337E-2,3.9156345E-3,2.9164111E-2,-5.0588544E-2,4.957874E-2,2.1037195E-2],"split_indices":[2,2,0,2,8,5,2,0,8,4,11,6,3,1,8,0,0,0,0,0,0,0,0,0,0,0,0,0,0,0,0],"split_type":[0,0,0,0,0,0,0,0,0,0,0,0,0,0,0,0,0,0,0,0,0,0,0,0,0,0,0,0,0,0,0],"sum_hessian":[2.2567073E3,1.591914E3,6.6479333E2,6.475069E2,9.444071E2,1.5214612E2,5.126472E2,8.828182E1,5.5922504E2,7.707833E2,1.736238E2,1.7894835E1,1.3425128E2,2.6002652E2,2.526207E2,8.531567E1,2.9661531E0,1.22961205E2,4.3626385E2,6.637985E1,7.0440344E2,1.2714471E2,4.647909E1,3.961046E0,1.3933788E1,4.4275756E0,1.298237E2,2.5756555E2,2.4609523E0,2.3273317E2,1.9887524E1],"tree_param":{"num_deleted":"0","num_feature":"12","num_nodes":"31","size_leaf_vector":"1"}},{"base_weights":[-3.019071E-4,2.9314142E-1,-2.0994543E-1,4.9197778E-1,1.7616618E-1,-1.17901586E-1,-3.9763594E-1,5.958336E-1,3.249444E-1,-7.69952E-2,2.2488908E-1,-3.1173747E-2,-2.120002E-1,-2.120304E-1,-4.2900896E-1,6.4550176E-2,3.974259E-2,2.8222663E-2,-4.409196E-2,-1.8711455E-5,-4.5043044E-2,9.040207E-3,2.5637848E-2,-4.3596525E-4,-2.4828464E-2,4.4097016E-3,-2.0628894E-2,-2.412133E-2,9.746368E-3,-4.196022E-2,-2.8488092E-2],"categories":[],"categories_nodes":[],"categories_segments":[],"categories_sizes":[],"default_left":[0,0,0,0,0,0,0,0,0,0,0,0,0,0,0,0,0,0,0,0,0,0,0,0,0,0,0,0,0,0,0],"id":6,"left_children":[1,3,5,7,9,11,13,15,17,19,21,23,25,27,29,-1,-1,-1,-1,-1,-1,-1,-1,-1,-1,-1,-1,-1,-1,-1,-1],"loss_changes":[1.2063325E2,1.8919296E1,1.9712769E1,5.0471954E0,6.3825054E0,6.2679644E0,2.098072E0,3.468193E0,3.0730038E0,3.1350136E0,4.594593E0,2.8801064E0,4.5295277E0,1.7197237E0,2.045288E0,0E0,0E0,0E0,0E0,0E0,0E0,0E0,0E0,0E0,0E0,0E0,0E0,0E0,0E0,0E0,0E0],"parents":[2147483647,0,0,1,1,2,2,3,3,4,4,5,5,6,6,7,7,8,8,9,9,10,10,11,11,12,12,13,13,14,14],"right_children":[2,4,6,8,10,12,14,16,18,20,22,24,26,28,30,-1,-1,-1,-1,-1,-1,-1,-1,-1,-1,-1,-1,-1,-1,-1,-1],"split_conditions":[-1.5E-1,-8E-1,6.5E-1,7.5E-1,-2.5E-1,1.6E-1,1.56E0,-1.3E0,1.53E0,2.15E0,1.57E0,5.4E-1,1.6E-1,4.5E-1,1E0,6.4550176E-2,3.974259E-2,2.8222663E-2,-4.409196E-2,-1.8711455E-5,-4.5043044E-2,9.040207E-3,2.5637848E-2,-4.3596525E-4,-2.4828464E-2,4.4097016E-3,-2.0628894E-2,-2.412133E-2,9.746368E-3,-4.196022E-2,-2.8488092E-2],"split_indices":[2,2,2,7,8,2,0,2,0,1,1,3,4,3,1,0,0,0,0,0,0,0,0,0,0,0,0,0,0,0,0],"split_type":[0,0,0,0,0,0,0,0,0,0,0,0,0,0,0,0,0,0,0,0,0,0,0,0,0,0,0,0,0,0,0],"sum_hessian":[1.958926E3,8.1614667E2,1.1427794E3,3.0110974E2,5.150369E2,7.6785144E2,3.7492792E2,1.8408476E2,1.17024994E2,8.303123E1,4.320057E2,4.0026794E2,3.6758353E2,5.5332764E1,3.1959515E2,5.651819E1,1.27566574E2,1.1399985E2,3.0251527E0,7.257056E1,1.04606695E1,2.0003531E2,2.319704E2,3.6743185E2,3.2836105E1,5.3832024E1,3.137515E2,4.3713017E1,1.1619747E1,1.3568393E2,1.8391121E2],"tree_param":{"num_deleted":"0","num_feature":"12","num_nodes":"31","size_leaf_vector":"1"}},{"base_weights":[5.100644E-4,3.682167E-2,-2.0550644E-1,3.3525188E-2,8.344538E-1,-1.2289275E-1,-3.6767703E-1,-6.1831325E-2,5.442426E-2,7.9896234E-2,8.025612E-3,-1.7271787E-1,3.2421264E-1,-2.7722007E-1,-5.7016647E-1,-6.618658E-3,4.0594056E-2,3.0676663E-2,3.9540716E-3,-1.9184453E-2,8.06608E-3,6.6123195E-2,-3.0112437E-3,-1.5024562E-2,-3.3976838E-2,-4.8443582E-2,-2.6405765E-2],"categories":[],"categories_nodes":[],"categories_segments":[],"categories_sizes":[],"default_left":[0,0,0,0,0,0,0,0,0,0,0,0,0,0,0,0,0,0,0,0,0,0,0,0,0,0,0],"id":7,"left_children":[1,3,5,7,9,11,13,15,17,-1,-1,19,21,23,25,-1,-1,-1,-1,-1,-1,-1,-1,-1,-1,-1,-1],"loss_changes":[1.2313224E1,3.6513834E0,3.2592E0,2.7826273E0,5.8923316E-1,3.7295587E0,1.3574257E0,3.0305953E0,1.8632183E0,0E0,0E0,2.7589417E0,3.0996802E0,7.001033E-1,9.0994835E-3,0E0,0E0,0E0,0E0,0E0,0E0,0E0,0E0,0E0,0E0,0E0,0E0],"parents":[2147483647,0,0,1,1,2,2,3,3,4,4,5,5,6,6,7,7,8,8,11,11,12,12,13,13,14,14],"right_children":[2,4,6,8,10,12,14,16,18,-1,-1,20,22,24,26,-1,-1,-1,-1,-1,-1,-1,-1,-1,-1,-1,-1],"split_conditions":[2.7E-1,2.56E0,2.22E0,-2.8E-1,2.8E0,7.5E-1,1.55E0,3E0,-2.5E-1,7.9896234E-2,8.025612E-3,1.3E0,7.7E-1,5E-1,3E-1,-6.618658E-3,4.0594056E-2,3.0676663E-2,3.9540716E-3,-1.9184453E-2,8.06608E-3,6.6123195E-2,-3.0112437E-3,-1.5024562E-2,-3.3976838E-2,-4.8443582E-2,-2.6405765E-2],"split_indices":[5,0,0,5,0,8,2,1,5,0,0,2,1,6,4,0,0,0,0,0,0,0,0,0,0,0,0],"split_type":[0,0,0,0,0,0,0,0,0,0,0,0,0,0,0,0,0,0,0,0,0,0,0,0,0,0,0],"sum_hessian":[1.6439675E3,1.3983257E3,2.4564175E2,1.3936082E3,4.717521E0,1.6390321E2,8.173854E1,2.501745E2,1.1434337E3,3.560533E0,1.156988E0,1.480215E2,1.5881717E1,5.8136566E1,2.3601969E1,2.4213837E2,8.03614E0,1.5976999E1,1.1274567E3,1.1896754E2,2.9053965E1,6.1123376E0,9.76938E0,3.760977E1,2.0526798E1,1.9244192E1,4.357778E0],"tree_param":{"num_deleted":"0","num_feature":"12","num_nodes":"27","size_leaf_vector":"1"}},{"base_weights":[-1.0967593E-4,-1.4902368E-1,3.542705E-1,-3.5294148E-1,-2.55148E-2,6.320649E-2,4.4020942E-1,-6.0187685E-1,-3.161313E-1,-1.4881167E-1,1.5418869E-2,4.2065048E-1,1.2735884E-2,3.2891285E-1,5.530138E-1,-4.9846277E-2,2.2420485E-2,-1.3267745E-2,-2.8534476E-2,-1.1764712E-3,-1.5402187E-2,6.672413E-3,-4.5320005E-3,-9.743318E-3,4.577917E-2,-5.659661E-2,3.385002E-3,2.7212324E-2,-4.914062E-2,4.628675E-2,1.92308E-2],"categories":[],"categories_nodes":[],"categories_segments":[],"categories_sizes":[],"default_left":[0,0,0,0,0,0,0,0,0,0,0,0,0,0,0,0,0,0,0,0,0,0,0,0,0,0,0,0,0,0,0],"id":8,"left_children":[1,3,5,7,9,11,13,15,17,19,21,23,25,27,29,-1,-1,-1,-1,-1,-1,-1,-1,-1,-1,-1,-1,-1,-1,-1,-1],"loss_changes":[1.1903984E2,3.999358E1,1.6666916E1,5.2990265E0,5.0001254E0,2.7603943E0,6.2852173E0,1.5972176E0,3.1340027E0,1.4446917E0,3.6518037E0,1.6268845E0,2.9134645E0,2.98419E0,1.8942795E0,0E0,0E0,0E0,0E0,0E0,0E0,0E0,0E0,0E0,0E0,0E0,0E0,0E0,0E0,0E0,0E0],"parents":[2147483647,0,0,1,1,2,2,3,3,4,4,5,5,6,6,7,7,8,8,9,9,10,10,11,11,12,12,13,13,14,14],"right_children":[2,4,6,8,10,12,14,16,18,20,22,24,26,28,30,-1,-1,-1,-1,-1,-1,-1,-1,-1,-1,-1,-1,-1,-1,-1,-1],"split_conditions":[4E-1,-4.5E-1,1.57E0,-1.35E0,-2.1E-1,1.2E-1,8.9E-1,1.41E0,0E0,2.5E-1,1E0,2.5E-1,2.3E-1,2.12E0,5E-1,-4.9846277E-2,2.2420485E-2,-1.3267745E-2,-2.8534476E-2,-1.1764712E-3,-1.5402187E-2,6.672413E-3,-4.5320005E-3,-9.743318E-3,4.577917E-2,-5.659661E-2,3.385002E-3,2.7212324E-2,-4.914062E-2,4.628675E-2,1.92308E-2],"split_indices":[2,2,0,2,2,5,2,0,8,6,6,6,3,1,8,0,0,0,0,0,0,0,0,0,0,0,0,0,0,0,0],"split_type":[0,0,0,0,0,0,0,0,0,0,0,0,0,0,0,0,0,0,0,0,0,0,0,0,0,0,0,0,0,0,0],"sum_hessian":[2.253731E3,1.5873082E3,6.6642285E2,5.980491E2,9.892591E2,1.5230864E2,5.141142E2,7.506408E1,5.22985E2,2.459112E2,7.433479E2,1.7937407E1,1.3437125E2,2.6075772E2,2.533565E2,7.358907E1,1.4750036E0,1.1220874E2,4.1077625E2,6.0783413E1,1.8512778E2,3.8242722E2,3.6092072E2,3.960793E0,1.3976613E1,4.3965063E0,1.2997473E2,2.583183E2,2.4394193E0,2.334143E2,1.9942196E1],"tree_param":{"num_deleted":"0","num_feature":"12","num_nodes":"31","size_leaf_vector":"1"}},{"base_weights":[-4.991685E-4,2.713688E-1,-1.9916064E-1,4.535215E-1,1.6314791E-1,-1.11486815E-1,-3.8087812E-1,3.266887E-1,5.8137244E-1,-7.57429E-2,2.0863907E-1,-2.0140022E-2,-1.9290324E-1,-3.1323445E-1,-4.667661E-1,-7.850009E-3,2.7938444E-2,4.9685653E-2,-4.5919335E-3,-1.3553206E-4,-4.420533E-2,7.998206E-3,2.3745E-2,1.1355598E-4,-2.5535975E-2,-7.4017034E-3,-2.3942793E-2,-2.6384119E-2,3.2905117E-2,-2.777626E-2,-4.5167554E-2],"categories":[],"categories_nodes":[],"categories_segments":[],"categories_sizes":[],"default_left":[0,0,0,0,0,0,0,0,0,0,0,0,0,0,0,0,0,0,0,0,0,0,0,0,0,0,0,0,0,0,0],"id":9,"left_children":[1,3,5,7,9,11,13,15,17,19,21,23,25,27,29,-1,-1,-1,-1,-1,-1,-1,-1,-1,-1,-1,-1,-1,-1,-1,-1],"loss_changes":[1.0573529E2,1.621981E1,1.7978817E1,4.796299E0,5.6676025E0,5.6812572E0,1.9901581E0,1.5343094E0,3.8862648E0,2.9623532E0,4.1586056E0,2.3303506E0,4.2872524E0,2.6413918E0,1.6750984E0,0E0,0E0,0E0,0E0,0E0,0E0,0E0,0E0,0E0,0E0,0E0,0E0,0E0,0E0,0E0,0E0],"parents":[2147483647,0,0,1,1,2,2,3,3,4,4,5,5,6,6,7,7,8,8,9,9,10,10,11,11,12,12,13,13,14,14],"right_children":[2,4,6,8,10,12,14,16,18,20,22,24,26,28,30,-1,-1,-1,-1,-1,-1,-1,-1,-1,-1,-1,-1,-1,-1,-1,-1],"split_conditions":[-1.5E-1,-8E-1,6.5E-1,6.5E-1,-2.5E-1,1.4E-1,1.05E0,3.1E-1,3E0,2.15E0,1.07E0,7.7E1,4.2E-1,4.2E-1,1E0,-7.850009E-3,2.7938444E-2,4.9685653E-2,-4.5919335E-3,-1.3553206E-4,-4.420533E-2,7.998206E-3,2.3745E-2,1.1355598E-4,-2.5535975E-2,-7.4017034E-3,-2.3942793E-2,-2.6384119E-2,3.2905117E-2,-2.777626E-2,-4.5167554E-2],"split_indices":[2,2,2,4,8,2,2,4,1,1,0,9,3,5,10,0,0,0,0,0,0,0,0,0,0,0,0,0,0,0,0],"split_type":[0,0,0,0,0,0,0,0,0,0,0,0,0,0,0,0,0,0,0,0,0,0,0,0,0,0,0,0,0,0,0],"sum_hessian":[1.955709E3,8.255622E2,1.1301469E3,3.0649405E2,5.190681E2,7.634271E2,3.6671967E2,1.5564438E2,1.5084969E2,8.292637E1,4.3614175E2,3.6036066E2,4.0306647E2,2.0774829E2,1.5897139E2,7.6738253E0,1.4797055E2,1.4204935E2,8.80034E0,7.264799E1,1.02783785E1,1.963283E2,2.3981345E2,3.3705716E2,2.3303492E1,2.0834315E2,1.9472333E2,2.0363687E2,4.11141E0,7.358597E1,8.5385414E1],"tree_param":{"num_deleted":"0","num_feature":"12","num_nodes":"31","size_leaf_vector":"1"}},{"base_weights":[9.4298844E-4,3.4841932E-2,-1.9481105E-1,3.1680036E-2,7.804172E-1,-1.1418537E-1,-3.551739E-1,-7.6450845E-3,7.797033E-2,7.476596E-2,7.1188007E-3,-1.626266E-1,3.100341E-1,-2.6474962E-1,-5.604042E-1,-5.86267E-3,4.239971E-3,1.07422825E-2,-1.6277182E-3,-1.8313749E-2,8.312646E-3,7.186731E-2,2.4644684E-3,-1.4065466E-2,-3.3043277E-2,-4.7727242E-2,-2.5485018E-2],"categories":[],"categories_nodes":[],"categories_segments":[],"categories_sizes":[],"default_left":[0,0,0,0,0,0,0,0,0,0,0,0,0,0,0,0,0,0,0,0,0,0,0,0,0,0,0],"id":10,"left_children":[1,3,5,7,9,11,13,15,17,-1,-1,19,21,23,25,-1,-1,-1,-1,-1,-1,-1,-1,-1,-1,-1,-1],"loss_changes":[1.0914688E1,3.2803779E0,3.0985594E0,2.5438638E0,5.4339695E-1,3.4007442E0,1.350256E0,3.0144184E0,3.5558527E0,0E0,0E0,2.6209602E0,2.773644E0,6.9163084E-1,1.8255234E-2,0E0,0E0,0E0,0E0,0E0,0E0,0E0,0E0,0E0,0E0,0E0,0E0],"parents":[2147483647,0,0,1,1,2,2,3,3,4,4,5,5,6,6,7,7,8,8,11,11,12,12,13,13,14,14],"right_children":[2,4,6,8,10,12,14,16,18,-1,-1,20,22,24,26,-1,-1,-1,-1,-1,-1,-1,-1,-1,-1,-1,-1],"split_conditions":[2.7E-1,2.56E0,2.22E0,0E0,5E-1,7.5E-1,1.55E0,5E-1,3.6E-1,7.476596E-2,7.1188007E-3,1.3E0,1.4E-1,5E-1,3E-1,-5.86267E-3,4.239971E-3,1.07422825E-2,-1.6277182E-3,-1.8313749E-2,8.312646E-3,7.186731E-2,2.4644684E-3,-1.4065466E-2,-3.3043277E-2,-4.7727242E-2,-2.5485018E-2],"split_indices":[5,0,0,5,7,8,2,7,2,0,0,2,4,6,4,0,0,0,0,0,0,0,0,0,0,0,0],"split_type":[0,0,0,0,0,0,0,0,0,0,0,0,0,0,0,0,0,0,0,0,0,0,0,0,0,0,0],"sum_hessian":[1.6427825E3,1.4009929E3,2.417895E2,1.3961146E3,4.878265E0,1.6203511E2,7.975439E1,7.5529865E2,6.4081604E2,3.701379E0,1.1768858E0,1.459822E2,1.6052925E1,5.6951584E1,2.2802803E1,3.6261597E2,3.9268268E2,4.072241E2,2.3359195E2,1.170175E2,2.8964682E1,4.4532094E0,1.1599716E1,3.6967533E1,1.998405E1,1.8558985E1,4.2438173E0],"tree_param":{"num_deleted":"0","num_feature":"12","num_nodes":"27","size_leaf_vector":"1"}},{"base_weights":[-2.5478852E-4,-1.3998188E-1,3.309729E-1,-3.3288336E-1,-2.395722E-2,5.7223994E-2,4.117852E-1,-5.7162035E-1,-2.9790762E-1,-1.3898136E-1,1.4120891E-2,4.017671E-1,8.580132E-3,3.0782944E-1,5.1731473E-1,-4.741199E-2,2.2720356E-2,-1.2386217E-2,-2.6934123E-2,-1.5605387E-2,-3.3419568E-3,4.741476E-2,4.7018516E-4,-9.6342955E-3,4.3813482E-2,-5.5295624E-2,2.969922E-3,-4.527923E-3,2.7046952E-2,4.3330267E-2,1.7671183E-2],"categories":[],"categories_nodes":[],"categories_segments":[],"categories_sizes":[],"default_left":[0,0,0,0,0,0,0,0,0,0,0,0,0,0,0,0,0,0,0,0,0,0,0,0,0,0,0,0,0,0,0],"id":11,"left_children":[1,3,5,7,9,11,13,15,17,19,21,23,25,27,29,-1,-1,-1,-1,-1,-1,-1,-1,-1,-1,-1,-1,-1,-1,-1,-1],"loss_changes":[1.0418936E2,3.5428375E1,1.4752098E1,4.7943573E0,4.336887E0,2.5673988E0,5.4961853E0,1.515789E0,2.8361244E0,1.3343849E0,3.547276E0,1.5101523E0,2.730925E0,2.9099388E0,1.7135239E0,0E0,0E0,0E0,0E0,0E0,0E0,0E0,0E0,0E0,0E0,0E0,0E0,0E0,0E0,0E0,0E0],"parents":[2147483647,0,0,1,1,2,2,3,3,4,4,5,5,6,6,7,7,8,8,9,9,10,10,11,11,12,12,13,13,14,14],"right_children":[2,4,6,8,10,12,14,16,18,20,22,24,26,28,30,-1,-1,-1,-1,-1,-1,-1,-1,-1,-1,-1,-1,-1,-1,-1,-1],"split_conditions":[4E-1,-4.5E-1,1.57E0,-1.35E0,-2.1E-1,1.2E-1,8.9E-1,1.41E0,0E0,2E0,8E-2,2.5E-1,2.3E-1,4.1E-1,5E-1,-4.741199E-2,2.2720356E-2,-1.2386217E-2,-2.6934123E-2,-1.5605387E-2,-3.3419568E-3,4.741476E-2,4.7018516E-4,-9.6342955E-3,4.3813482E-2,-5.5295624E-2,2.969922E-3,-4.527923E-3,2.7046952E-2,4.3330267E-2,1.7671183E-2],"split_indices":[2,2,0,2,2,5,2,0,8,9,3,6,3,2,8,0,0,0,0,0,0,0,0,0,0,0,0,0,0,0,0],"split_type":[0,0,0,0,0,0,0,0,0,0,0,0,0,0,0,0,0,0,0,0,0,0,0,0,0,0,0,0,0,0,0],"sum_hessian":[2.2492092E3,1.5822998E3,6.669095E2,5.9356885E2,9.88731E2,1.5239261E2,5.145169E2,7.388716E1,5.196817E2,2.4524857E2,7.434824E2,1.7955431E1,1.3443718E2,2.6116437E2,2.5335252E2,7.24147E1,1.472457E0,1.1185711E2,4.078246E2,1.5487993E2,9.036864E1,9.448611E0,7.340338E2,3.9592981E0,1.3996134E1,4.3589516E0,1.3007822E2,1.9954683E1,2.4120969E2,2.3338258E2,1.996993E1],"tree_param":{"num_deleted":"0","num_feature":"12","num_nodes":"31","size_leaf_vector":"1"}},{"base_weights":[-7.2225364E-4,2.5121891E-1,-1.8874909E-1,4.1954538E-1,1.5049575E-1,-1.0511968E-1,-3.649163E-1,3.0115548E-1,5.384271E-1,-1.5764555E-2,2.0900781E-1,-2.6019296E-2,-1.9229588E-1,-2.988547E-1,-4.49662E-1,1.7530233E-2,3.4261853E-2,4.5491155E-2,-1.6236648E-2,3.652557E-3,-3.5483845E-2,6.6764653E-3,2.5034692E-2,-1.14075054E-4,-2.3705449E-2,4.7722743E-3,-1.8911848E-2,-1.1526829E-2,-3.0426072E-2,-2.645128E-2,-4.3846864E-2],"categories":[],"categories_nodes":[],"categories_segments":[],"categories_sizes":[],"default_left":[0,0,0,0,0,0,0,0,0,0,0,0,0,0,0,0,0,0,0,0,0,0,0,0,0,0,0,0,0,0,0],"id":12,"left_children":[1,3,5,7,9,11,13,15,17,19,21,23,25,27,29,-1,-1,-1,-1,-1,-1,-1,-1,-1,-1,-1,-1,-1,-1,-1,-1],"loss_changes":[9.254733E1,1.4092384E1,1.6443504E1,4.229145E0,5.1000404E0,5.23575E0,1.8794632E0,1.5598574E0,3.574047E0,3.6281717E0,5.0313168E0,2.6560452E0,4.0296993E0,2.5316467E0,1.6414776E0,0E0,0E0,0E0,0E0,0E0,0E0,0E0,0E0,0E0,0E0,0E0,0E0,0E0,0E0,0E0,0E0],"parents":[2147483647,0,0,1,1,2,2,3,3,4,4,5,5,6,6,7,7,8,8,9,9,10,10,11,11,12,12,13,13,14,14],"right_children":[2,4,6,8,10,12,14,16,18,20,22,24,26,28,30,-1,-1,-1,-1,-1,-1,-1,-1,-1,-1,-1,-1,-1,-1,-1,-1],"split_conditions":[-1.5E-1,-8E-1,6.5E-1,6.5E-1,0E0,1.6E-1,1.05E0,-9.6E-1,1.62E0,1.71E0,1.57E0,5.4E-1,1.6E-1,7.5E-1,1E0,1.7530233E-2,3.4261853E-2,4.5491155E-2,-1.6236648E-2,3.652557E-3,-3.5483845E-2,6.6764653E-3,2.5034692E-2,-1.14075054E-4,-2.3705449E-2,4.7722743E-3,-1.8911848E-2,-1.1526829E-2,-3.0426072E-2,-2.645128E-2,-4.3846864E-2],"split_indices":[2,2,2,4,8,2,2,2,0,0,1,3,4,7,10,0,0,0,0,0,0,0,0,0,0,0,0,0,0,0,0],"split_type":[0,0,0,0,0,0,0,0,0,0,0,0,0,0,0,0,0,0,0,0,0,0,0,0,0,0,0,0,0,0,0],"sum_hessian":[1.951641E3,8.33919E2,1.1177219E3,3.1100632E2,5.229127E2,7.5900616E2,3.5871573E2,1.5759581E2,1.534105E2,1.3631323E2,3.865995E2,3.9861575E2,3.603904E2,2.0412283E2,1.5459291E2,9.744165E1,6.0154156E1,1.4762752E2,5.782992E0,1.1997971E2,1.6333517E1,1.758996E2,2.106999E2,3.6629352E2,3.232224E1,5.3634125E1,3.067563E2,7.134971E1,1.3277313E2,7.194784E1,8.2645065E1],"tree_param":{"num_deleted":"0","num_feature":"12","num_nodes":"31","size_leaf_vector":"1"}},{"base_weights":[1.4122863E-3,3.3023942E-2,-1.8434332E-1,2.9970562E-2,7.397441E-1,-1.0557824E-1,-3.4303498E-1,-5.8081135E-2,4.908284E-2,7.122188E-2,6.0468726E-3,-1.526699E-1,2.9765427E-1,-2.5273964E-1,-5.5106264E-1,-6.2292437E-3,3.698732E-2,3.5563859E-3,2.9938927E-2,-1.7455807E-2,8.572062E-3,5.894621E-2,-2.8061708E-3,-1.3160014E-2,-3.2128517E-2,-4.704582E-2,-2.4627008E-2],"categories":[],"categories_nodes":[],"categories_segments":[],"categories_sizes":[],"default_left":[0,0,0,0,0,0,0,0,0,0,0,0,0,0,0,0,0,0,0,0,0,0,0,0,0,0,0],"id":13,"left_children":[1,3,5,7,9,11,13,15,17,-1,-1,19,21,23,25,-1,-1,-1,-1,-1,-1,-1,-1,-1,-1,-1,-1],"loss_changes":[9.650316E0,3.008346E0,2.9511967E0,2.3578458E0,5.324936E-1,3.1059055E0,1.3415403E0,2.6104183E0,1.7144432E0,0E0,0E0,2.4916964E0,2.5382257E0,6.8032074E-1,2.6136398E-2,0E0,0E0,0E0,0E0,0E0,0E0,0E0,0E0,0E0,0E0,0E0,0E0],"parents":[2147483647,0,0,1,1,2,2,3,3,4,4,5,5,6,6,7,7,8,8,11,11,12,12,13,13,14,14],"right_children":[2,4,6,8,10,12,14,16,18,-1,-1,20,22,24,26,-1,-1,-1,-1,-1,-1,-1,-1,-1,-1,-1,-1],"split_conditions":[2.7E-1,2.56E0,2.22E0,-2.8E-1,2.8E0,7.5E-1,1.55E0,3E0,9.1E1,7.122188E-2,6.0468726E-3,1.3E0,7.7E-1,5E-1,3E-1,-6.2292437E-3,3.698732E-2,3.5563859E-3,2.9938927E-2,-1.7455807E-2,8.572062E-3,5.894621E-2,-2.8061708E-3,-1.3160014E-2,-3.2128517E-2,-4.704582E-2,-2.4627008E-2],"split_indices":[5,0,0,5,0,8,2,1,9,0,0,2,1,6,4,0,0,0,0,0,0,0,0,0,0,0,0],"split_type":[0,0,0,0,0,0,0,0,0,0,0,0,0,0,0,0,0,0,0,0,0,0,0,0,0,0,0],"sum_hessian":[1.6413978E3,1.4033925E3,2.3800534E2,1.3983931E3,4.999338E0,1.601712E2,7.783413E1,2.4903436E2,1.1493588E3,3.7980647E0,1.2012733E0,1.4397806E2,1.6193151E1,5.5820095E1,2.2014034E1,2.4073303E2,8.30134E0,1.1343499E3,1.5008844E1,1.1510769E2,2.8870361E1,6.4565907E0,9.73656E0,3.6368195E1,1.9451899E1,1.787612E1,4.137916E0],"tree_param":{"num_deleted":"0","num_feature":"12","num_nodes":"27","size_leaf_vector":"1"}},{"base_weights":[-4.0510128E-4,-1.3119268E-1,3.0873308E-1,-3.146442E-1,-2.1644408E-2,4.9717788E-2,3.8531438E-1,-5.464434E-1,-2.810069E-1,4.1713133E-2,-8.928653E-2,3.8396236E-1,2.6036254E-3,4.199965E-1,9.601448E-2,-4.536619E-2,2.2047723E-2,-1.1541304E-2,-2.5457956E-2,3.6199905E-2,1.3024106E-3,-4.7675534E-3,-3.6821466E-2,1.7824786E-3,4.7426138E-2,-5.4221876E-2,2.4146682E-3,2.618515E-2,4.0653057E-2,7.860131E-4,6.5535404E-2],"categories":[],"categories_nodes":[],"categories_segments":[],"categories_sizes":[],"default_left":[0,0,0,0,0,0,0,0,0,0,0,0,0,0,0,0,0,0,0,0,0,0,0,0,0,0,0,0,0,0,0],"id":14,"left_children":[1,3,5,7,9,11,13,15,17,19,21,23,25,27,29,-1,-1,-1,-1,-1,-1,-1,-1,-1,-1,-1,-1,-1,-1,-1,-1],"loss_changes":[9.078954E1,3.170464E1,1.322279E1,4.4458923E0,4.2424045E0,2.416052E0,5.1278915E0,1.4063034E0,2.5861893E0,5.3352523E0,5.2451825E0,1.4187217E0,2.5636468E0,3.5897522E0,3.5096812E0,0E0,0E0,0E0,0E0,0E0,0E0,0E0,0E0,0E0,0E0,0E0,0E0,0E0,0E0,0E0,0E0],"parents":[2147483647,0,0,1,1,2,2,3,3,4,4,5,5,6,6,7,7,8,8,9,9,10,10,11,11,12,12,13,13,14,14],"right_children":[2,4,6,8,10,12,14,16,18,20,22,24,26,28,30,-1,-1,-1,-1,-1,-1,-1,-1,-1,-1,-1,-1,-1,-1,-1,-1],"split_conditions":[4E-1,-4.5E-1,1.57E0,-1.35E0,1E0,1.2E-1,5E-1,1.41E0,0E0,1.8E-1,5.3E-1,1E0,2.3E-1,8.9E-1,5.6E-1,-4.536619E-2,2.2047723E-2,-1.1541304E-2,-2.5457956E-2,3.6199905E-2,1.3024106E-3,-4.7675534E-3,-3.6821466E-2,1.7824786E-3,4.7426138E-2,-5.4221876E-2,2.4146682E-3,2.618515E-2,4.0653057E-2,7.860131E-4,6.5535404E-2],"split_indices":[2,2,0,2,6,5,8,0,8,4,4,9,3,2,5,0,0,0,0,0,0,0,0,0,0,0,0,0,0,0,0],"split_type":[0,0,0,0,0,0,0,0,0,0,0,0,0,0,0,0,0,0,0,0,0,0,0,0,0,0,0,0,0,0,0],"sum_hessian":[2.2435166E3,1.5769357E3,6.6658105E2,5.888929E2,9.880427E2,1.5248647E2,5.140946E2,7.269517E1,5.1619775E2,5.1037714E2,4.776656E2,1.7955334E1,1.3453113E2,4.586576E2,5.5436993E1,7.121769E1,1.4774785E0,1.1148142E2,4.047163E2,2.877767E1,4.815995E2,4.4334262E2,3.4322975E1,6.978187E0,1.0977147E1,4.322493E0,1.3020863E2,2.2590034E2,2.3275726E2,5.043917E1,4.9978213E0],"tree_param":{"num_deleted":"0","num_feature":"12","num_nodes":"31","size_leaf_vector":"1"}},{"base_weights":[-9.6517627E-4,2.3357372E-1,-1.7929491E-1,3.8846284E-1,1.4026347E-1,-9.975621E-2,-3.4968883E-1,4.781759E-1,2.4340667E-1,-7.569528E-2,1.8074049E-1,-4.161441E-2,-2.0943238E-1,-2.8533453E-1,-4.3318322E-1,4.563192E-2,2.5530629E-2,5.2325195E-3,2.9575987E-2,-4.8605338E-4,-4.295389E-2,6.5052905E-3,2.0869983E-2,-5.6084697E-3,1.1057841E-2,1.7952697E-2,-1.9508027E-2,-2.416161E-2,3.3542342E-2,-2.514832E-2,-4.2603534E-2],"categories":[],"categories_nodes":[],"categories_segments":[],"categories_sizes":[],"default_left":[0,0,0,0,0,0,0,0,0,0,0,0,0,0,0,0,0,0,0,0,0,0,0,0,0,0,0,0,0,0,0],"id":15,"left_children":[1,3,5,7,9,11,13,15,17,19,21,23,25,27,29,-1,-1,-1,-1,-1,-1,-1,-1,-1,-1,-1,-1,-1,-1,-1,-1],"loss_changes":[8.150934E1,1.2111065E1,1.4968979E1,3.9944E0,4.6191425E0,4.813058E0,1.7672958E0,2.6655083E0,2.7352238E0,2.68974E0,3.516203E0,2.5481482E0,3.9627743E0,2.4975834E0,1.6183681E0,0E0,0E0,0E0,0E0,0E0,0E0,0E0,0E0,0E0,0E0,0E0,0E0,0E0,0E0,0E0,0E0],"parents":[2147483647,0,0,1,1,2,2,3,3,4,4,5,5,6,6,7,7,8,8,9,9,10,10,11,11,12,12,13,13,14,14],"right_children":[2,4,6,8,10,12,14,16,18,20,22,24,26,28,30,-1,-1,-1,-1,-1,-1,-1,-1,-1,-1,-1,-1,-1,-1,-1,-1],"split_conditions":[-1.5E-1,-8E-1,6.5E-1,7.5E-1,-2.5E-1,4.2E-1,1.05E0,-1.09E0,8.1E-1,2.15E0,1.07E0,1.31E0,-7E-2,4.2E-1,1E0,4.563192E-2,2.5530629E-2,5.2325195E-3,2.9575987E-2,-4.8605338E-4,-4.295389E-2,6.5052905E-3,2.0869983E-2,-5.6084697E-3,1.1057841E-2,1.7952697E-2,-1.9508027E-2,-2.416161E-2,3.3542342E-2,-2.514832E-2,-4.2603534E-2],"split_indices":[2,2,2,7,8,3,2,2,0,1,0,1,2,5,10,0,0,0,0,0,0,0,0,0,0,0,0,0,0,0,0],"split_type":[0,0,0,0,0,0,0,0,0,0,0,0,0,0,0,0,0,0,0,0,0,0,0,0,0,0,0,0,0,0,0],"sum_hessian":[1.946805E3,8.407468E2,1.1060582E3,3.1488855E2,5.258583E2,7.5514655E2,3.5091174E2,1.9314037E2,1.2174819E2,8.28666E1,4.4299167E2,4.9442184E2,2.6072467E2,2.0066454E2,1.502472E2,1.2061425E2,7.2526115E1,5.116006E1,7.0588135E1,7.287911E1,9.987486E0,1.9859961E2,2.4439204E2,4.2733047E2,6.709136E1,1.8758034E1,2.4196664E2,1.9658078E2,4.083766E0,7.031674E1,7.993045E1],"tree_param":{"num_deleted":"0","num_feature":"12","num_nodes":"31","size_leaf_vector":"1"}},{"base_weights":[1.9437604E-3,3.142469E-2,-1.7424591E-1,2.8480113E-2,7.012459E-1,-9.7604886E-2,-3.3083373E-1,3.8554534E-2,-1.3108245E-1,6.73438E-2,5.7273866E-3,-1.4300108E-1,2.8156227E-1,-2.4082515E-1,-5.417267E-1,2.7680506E-3,2.8263701E-2,4.6085427E-3,-3.5194226E-2,-1.6620532E-2,8.821429E-3,6.435971E-2,1.9280231E-3,-4.3679513E-2,-1.541348E-2,-4.637008E-2,-2.3786012E-2],"categories":[],"categories_nodes":[],"categories_segments":[],"categories_sizes":[],"default_left":[0,0,0,0,0,0,0,0,0,0,0,0,0,0,0,0,0,0,0,0,0,0,0,0,0,0,0],"id":16,"left_children":[1,3,5,7,9,11,13,15,17,-1,-1,19,21,23,25,-1,-1,-1,-1,-1,-1,-1,-1,-1,-1,-1,-1],"loss_changes":[8.528095E0,2.7540076E0,2.79208E0,2.2576883E0,4.8076296E-1,2.7844257E0,1.3296003E0,1.6290641E0,4.8884277E0,0E0,0E0,2.3688931E0,2.3210335E0,7.135062E-1,3.336668E-2,0E0,0E0,0E0,0E0,0E0,0E0,0E0,0E0,0E0,0E0,0E0,0E0],"parents":[2147483647,0,0,1,1,2,2,3,3,4,4,5,5,6,6,7,7,8,8,11,11,12,12,13,13,14,14],"right_children":[2,4,6,8,10,12,14,16,18,-1,-1,20,22,24,26,-1,-1,-1,-1,-1,-1,-1,-1,-1,-1,-1,-1],"split_conditions":[2.7E-1,2.56E0,2.22E0,2.35E0,2.8E0,7.5E-1,1.55E0,9.1E1,1E0,6.73438E-2,5.7273866E-3,1.3E0,1.4E-1,8.5E-1,3E-1,2.7680506E-3,2.8263701E-2,4.6085427E-3,-3.5194226E-2,-1.6620532E-2,8.821429E-3,6.435971E-2,1.9280231E-3,-4.3679513E-2,-1.541348E-2,-4.637008E-2,-2.3786012E-2],"split_indices":[5,0,0,1,0,8,2,9,11,0,0,2,4,2,4,0,0,0,0,0,0,0,0,0,0,0,0],"split_type":[0,0,0,0,0,0,0,0,0,0,0,0,0,0,0,0,0,0,0,0,0,0,0,0,0,0,0],"sum_hessian":[1.6397842E3,1.4054406E3,2.3434363E2,1.4003271E3,5.1134086E0,1.5842616E2,7.5917465E1,1.3178777E3,8.244947E1,3.9048452E0,1.2085633E0,1.420428E2,1.6383371E1,5.470951E1,2.1207952E1,1.3026235E3,1.525411E1,5.16856E1,3.0763868E1,1.1326341E2,2.8779385E1,4.704099E0,1.1679273E1,6.047653E0,4.8661858E1,1.7173283E1,4.03467E0],"tree_param":{"num_deleted":"0","num_feature":"12","num_nodes":"27","size_leaf_vector":"1"}},{"base_weights":[-5.850853E-4,-2.4668978E-1,1.4415538E-1,-3.5133684E-1,-1.7114131E-1,3.1548586E-2,3.2829338E-1,-5.22705E-1,-3.049873E-1,-1.0524477E-1,-2.5547525E-1,4.01071E-2,-4.872541E-1,-6.595593E-3,3.9959145E-1,-4.347184E-2,2.2549951E-2,-2.5695294E-2,7.2723185E-3,2.7221834E-2,-1.0099792E-2,-2.617403E-2,-3.280648E-3,6.2235463E-3,-5.0242883E-3,-9.089056E-3,-4.9506117E-2,4.4622133E-3,-2.6691942E-2,2.4962012E-2,3.9293196E-2],"categories":[],"categories_nodes":[],"categories_segments":[],"categories_sizes":[],"default_left":[0,0,0,0,0,0,0,0,0,0,0,0,0,0,0,0,0,0,0,0,0,0,0,0,0,0,0,0,0,0,0],"id":17,"left_children":[1,3,5,7,9,11,13,15,17,19,21,23,25,27,29,-1,-1,-1,-1,-1,-1,-1,-1,-1,-1,-1,-1,-1,-1,-1,-1],"loss_changes":[7.9751274E1,6.4947586E0,2.9221186E1,2.594059E0,2.659791E0,3.9086812E0,1.2773418E1,1.3585587E0,1.7949963E0,2.5982864E0,3.2366972E0,3.3504329E0,6.3224673E-1,1.9538511E0,3.3829346E0,0E0,0E0,0E0,0E0,0E0,0E0,0E0,0E0,0E0,0E0,0E0,0E0,0E0,0E0,0E0,0E0],"parents":[2147483647,0,0,1,1,2,2,3,3,4,4,5,5,6,6,7,7,8,8,9,9,10,10,11,11,12,12,13,13,14,14],"right_children":[2,4,6,8,10,12,14,16,18,20,22,24,26,28,30,-1,-1,-1,-1,-1,-1,-1,-1,-1,-1,-1,-1,-1,-1,-1,-1],"split_conditions":[-2.1E-1,-7.8E-1,5.4E-1,-1.35E0,5E-1,2.18E0,1.57E0,1.41E0,1.59E0,-7.2E-1,5E-1,2.5E-1,2.5E-1,7.5E-1,1E0,-4.347184E-2,2.2549951E-2,-2.5695294E-2,7.2723185E-3,2.7221834E-2,-1.0099792E-2,-2.617403E-2,-3.280648E-3,6.2235463E-3,-5.0242883E-3,-9.089056E-3,-4.9506117E-2,4.4622133E-3,-2.6691942E-2,2.4962012E-2,3.9293196E-2],"split_indices":[2,2,2,2,4,1,0,0,0,2,3,8,7,8,10,0,0,0,0,0,0,0,0,0,0,0,0,0,0,0,0],"split_type":[0,0,0,0,0,0,0,0,0,0,0,0,0,0,0,0,0,0,0,0,0,0,0,0,0,0,0,0,0,0,0],"sum_hessian":[2.2368657E3,8.281107E2,1.4087551E3,3.4566177E2,4.824489E2,8.7489667E2,5.3385846E2,7.139936E1,2.7426242E2,2.7209125E2,2.1035767E2,8.616058E2,1.3290927E1,9.386752E1,4.399909E2,6.992556E1,1.4737993E0,2.6365952E2,1.0602915E1,1.1565118E1,2.6052612E2,1.5725804E2,5.3099632E1,6.3083124E2,2.307745E2,3.9466586E0,9.344268E0,7.952967E1,1.4337856E1,2.2716954E2,2.1282137E2],"tree_param":{"num_deleted":"0","num_feature":"12","num_nodes":"31","size_leaf_vector":"1"}},{"base_weights":[-1.1582365E-3,1.5644944E-1,-2.3745093E-1,2.9061562E-1,2.7112778E-2,-1.114206E-1,-3.204521E-1,3.820455E-1,1.6993962E-1,-7.2123804E-3,2.0227307E-1,-1.3606802E-1,1.8473335E-1,-4.6351218E-1,-2.6912323E-1,4.2385444E-2,2.3222033E-2,4.014291E-3,2.2142364E-2,-3.494474E-2,3.3900447E-4,3.1185462E-3,4.0548768E-2,-4.7991898E-2,-1.0048632E-2,5.6350973E-2,-3.8941577E-3,-4.6106752E-2,-3.119367E-2,3.8967326E-2,-2.230628E-2],"categories":[],"categories_nodes":[],"categories_segments":[],"categories_sizes":[],"default_left":[0,0,0,0,0,0,0,0,0,0,0,0,0,0,0,0,0,0,0,0,0,0,0,0,0,0,0,0,0,0,0],"id":18,"left_children":[1,3,5,7,9,11,13,15,17,19,21,23,25,27,29,-1,-1,-1,-1,-1,-1,-1,-1,-1,-1,-1,-1,-1,-1,-1,-1],"loss_changes":[7.2376785E1,2.02224E1,8.098606E0,6.2476234E0,3.5770624E0,2.290166E0,3.314087E0,4.249611E0,3.1647444E0,2.452548E0,4.828512E0,1.3172755E0,2.977441E0,7.9047585E-1,2.6827908E0,0E0,0E0,0E0,0E0,0E0,0E0,0E0,0E0,0E0,0E0,0E0,0E0,0E0,0E0,0E0,0E0],"parents":[2147483647,0,0,1,1,2,2,3,3,4,4,5,5,6,6,7,7,8,8,9,9,10,10,11,11,12,12,13,13,14,14],"right_children":[2,4,6,8,10,12,14,16,18,20,22,24,26,28,30,-1,-1,-1,-1,-1,-1,-1,-1,-1,-1,-1,-1,-1,-1,-1,-1],"split_conditions":[1E-1,-4.5E-1,1.56E0,7.5E-1,7.5E-1,1E0,1E0,-1.09E0,2.1E-1,9E-2,1E0,-2E-2,1.6E-1,2.5E-1,0E0,4.2385444E-2,2.3222033E-2,4.014291E-3,2.2142364E-2,-3.494474E-2,3.3900447E-4,3.1185462E-3,4.0548768E-2,-4.7991898E-2,-1.0048632E-2,5.6350973E-2,-3.8941577E-3,-4.6106752E-2,-3.119367E-2,3.8967326E-2,-2.230628E-2],"split_indices":[2,2,0,7,8,8,1,2,3,3,11,5,4,6,5,0,0,0,0,0,0,0,0,0,0,0,0,0,0,0,0],"split_type":[0,0,0,0,0,0,0,0,0,0,0,0,0,0,0,0,0,0,0,0,0,0,0,0,0,0,0,0,0,0,0],"sum_hessian":[1.9414447E3,1.1648353E3,7.7660944E2,5.711309E2,5.937044E2,3.093022E2,4.6730722E2,3.2370825E2,2.4742265E2,4.972249E2,9.647949E1,2.860373E2,2.3264914E1,1.2127314E2,3.460341E2,1.2218571E2,2.0152255E2,1.173501E2,1.3007254E2,1.1943934E1,4.8528098E2,6.354207E1,3.2937424E1,5.065558E0,2.809717E2,6.5854864E0,1.6679428E1,4.5178604E1,7.6094536E1,3.761447E0,3.4227264E2],"tree_param":{"num_deleted":"0","num_feature":"12","num_nodes":"31","size_leaf_vector":"1"}},{"base_weights":[2.498635E-3,3.0048758E-2,-1.6479175E-1,2.7244354E-2,6.5499854E-1,-1.0020325E-1,-3.456454E-1,-9.300711E-3,7.000833E-2,6.3500576E-2,4.1927057E-3,-1.459137E-1,2.5309998E-1,-4.2725962E-1,-9.583609E-2,-5.5705607E-3,3.665618E-3,9.5943725E-3,-1.4795716E-3,3.6275466E-3,-1.64439E-2,5.3750295E-2,-3.6817782E-3,-4.6626646E-2,-2.5940556E-2,1.288527E-2,-4.2421956E-2],"categories":[],"categories_nodes":[],"categories_segments":[],"categories_sizes":[],"default_left":[0,0,0,0,0,0,0,0,0,0,0,0,0,0,0,0,0,0,0,0,0,0,0,0,0,0,0],"id":19,"left_children":[1,3,5,7,9,11,13,15,17,-1,-1,19,21,23,25,-1,-1,-1,-1,-1,-1,-1,-1,-1,-1,-1,-1],"loss_changes":[7.55946E0,2.4501834E0,2.674479E0,2.1932027E0,4.8078537E-1,2.8195271E0,1.1950293E0,2.5218186E0,2.858965E0,0E0,0E0,1.7566328E0,2.5492973E0,5.386057E-1,1.8954401E0,0E0,0E0,0E0,0E0,0E0,0E0,0E0,0E0,0E0,0E0,0E0,0E0],"parents":[2147483647,0,0,1,1,2,2,3,3,4,4,5,5,6,6,7,7,8,8,11,11,12,12,13,13,14,14],"right_children":[2,4,6,8,10,12,14,16,18,-1,-1,20,22,24,26,-1,-1,-1,-1,-1,-1,-1,-1,-1,-1,-1,-1],"split_conditions":[2.7E-1,2.56E0,2.27E0,0E0,5E-1,5E-1,1.38E0,5E-1,3.6E-1,6.3500576E-2,4.1927057E-3,6.4E-1,7.7E-1,7.5E-1,1.62E0,-5.5705607E-3,3.665618E-3,9.5943725E-3,-1.4795716E-3,3.6275466E-3,-1.64439E-2,5.3750295E-2,-3.6817782E-3,-4.6626646E-2,-2.5940556E-2,1.288527E-2,-4.2421956E-2],"split_indices":[5,0,0,5,7,8,1,7,2,0,0,1,1,7,1,0,0,0,0,0,0,0,0,0,0,0,0],"split_type":[0,0,0,0,0,0,0,0,0,0,0,0,0,0,0,0,0,0,0,0,0,0,0,0,0,0,0],"sum_hessian":[1.6381237E3,1.4072001E3,2.3092357E2,1.4019525E3,5.2475386E0,1.7130078E2,5.96228E1,7.563643E2,6.455882E2,4.0074883E0,1.2400501E0,1.5219656E2,1.9104221E1,4.4405056E1,1.5217743E1,3.609891E2,3.953752E2,4.125363E2,2.3305188E2,3.6232735E1,1.1596382E2,7.4407763E0,1.16634445E1,1.5832893E1,2.857216E1,9.958256E0,5.259487E0],"tree_param":{"num_deleted":"0","num_feature":"12","num_nodes":"27","size_leaf_vector":"1"}},{"base_weights":[-8.27438E-4,-2.3257774E-1,1.3466848E-1,-3.3223704E-1,-1.611512E-1,2.9417485E-2,3.0732676E-1,-5.012043E-1,-2.8698346E-1,-9.8238625E-2,-2.4197066E-1,3.7609812E-2,-4.7013018E-1,-1.1431747E-2,3.7547418E-1,-4.1748326E-2,2.2607395E-2,-2.4215622E-2,7.444389E-3,2.6345195E-2,-9.482431E-3,-2.4880845E-2,-2.9272663E-3,4.9978707E-2,2.4849663E-3,-8.628823E-3,-4.7880948E-2,-5.076858E-2,1.4589009E-3,2.3360515E-2,3.704055E-2],"categories":[],"categories_nodes":[],"categories_segments":[],"categories_sizes":[],"default_left":[0,0,0,0,0,0,0,0,0,0,0,0,0,0,0,0,0,0,0,0,0,0,0,0,0,0,0,0,0,0,0],"id":20,"left_children":[1,3,5,7,9,11,13,15,17,19,21,23,25,27,29,-1,-1,-1,-1,-1,-1,-1,-1,-1,-1,-1,-1,-1,-1,-1,-1],"loss_changes":[7.007796E1,5.807583E0,2.5583456E1,2.477436E0,2.4248142E0,3.6029055E0,1.1587997E1,1.2978992E0,1.6566868E0,2.4029183E0,2.9677753E0,3.297665E0,5.962951E-1,1.7660316E0,3.0748405E0,0E0,0E0,0E0,0E0,0E0,0E0,0E0,0E0,0E0,0E0,0E0,0E0,0E0,0E0,0E0,0E0],"parents":[2147483647,0,0,1,1,2,2,3,3,4,4,5,5,6,6,7,7,8,8,9,9,10,10,11,11,12,12,13,13,14,14],"right_children":[2,4,6,8,10,12,14,16,18,20,22,24,26,28,30,-1,-1,-1,-1,-1,-1,-1,-1,-1,-1,-1,-1,-1,-1,-1,-1],"split_conditions":[-2.1E-1,-7.8E-1,5.4E-1,-1.35E0,5E-1,2.18E0,1.57E0,1.41E0,1.59E0,-7.2E-1,5E-1,4.5E-1,2.5E-1,2.3E-1,1E0,-4.1748326E-2,2.2607395E-2,-2.4215622E-2,7.444389E-3,2.6345195E-2,-9.482431E-3,-2.4880845E-2,-2.9272663E-3,4.9978707E-2,2.4849663E-3,-8.628823E-3,-4.7880948E-2,-5.076858E-2,1.4589009E-3,2.3360515E-2,3.704055E-2],"split_indices":[2,2,2,2,4,1,0,0,0,2,3,1,7,3,10,0,0,0,0,0,0,0,0,0,0,0,0,0,0,0,0],"split_type":[0,0,0,0,0,0,0,0,0,0,0,0,0,0,0,0,0,0,0,0,0,0,0,0,0,0,0,0,0,0,0],"sum_hessian":[2.229698E3,8.223853E2,1.4073127E3,3.4181274E2,4.8057257E2,8.750563E2,5.322564E2,7.007863E1,2.7173413E2,2.7146814E2,2.0910442E2,8.6184717E2,1.3209146E1,9.3895226E1,4.3836118E2,6.8605354E1,1.4732721E0,2.6114136E2,1.0592777E1,1.161014E1,2.59858E2,1.5611194E2,5.299248E1,8.464203E0,8.5338293E2,3.9377332E0,9.271413E0,3.3403795E0,9.055485E1,2.266104E2,2.1175078E2],"tree_param":{"num_deleted":"0","num_feature":"12","num_nodes":"31","size_leaf_vector":"1"}},{"base_weights":[-1.3667913E-3,1.4599203E-1,-2.2636609E-1,2.6982707E-1,2.5727699E-2,-1.0578346E-1,-3.0695263E-1,3.553694E-1,1.5658838E-1,-6.91083E-3,1.9119497E-1,-1.2987499E-1,1.8123244E-1,-4.4923702E-1,-2.565934E-1,3.946306E-2,2.1571465E-2,-1.3832612E-2,1.5381404E-2,-3.404235E-2,3.277199E-4,2.860609E-3,3.8213827E-2,-4.70802E-2,-9.573383E-3,5.4139614E-2,-3.625179E-3,-4.511813E-2,-3.0004956E-2,3.7179258E-2,-2.1291059E-2],"categories":[],"categories_nodes":[],"categories_segments":[],"categories_sizes":[],"default_left":[0,0,0,0,0,0,0,0,0,0,0,0,0,0,0,0,0,0,0,0,0,0,0,0,0,0,0,0,0,0,0],"id":21,"left_children":[1,3,5,7,9,11,13,15,17,19,21,23,25,27,29,-1,-1,-1,-1,-1,-1,-1,-1,-1,-1,-1,-1,-1,-1,-1,-1],"loss_changes":[6.424555E1,1.743074E1,7.4190826E0,5.5313034E0,3.2152426E0,2.1581707E0,3.1744766E0,3.7423592E0,2.972159E0,2.2965724E0,4.35036E0,1.2656279E0,2.761145E0,7.9859734E-1,2.4744492E0,0E0,0E0,0E0,0E0,0E0,0E0,0E0,0E0,0E0,0E0,0E0,0E0,0E0,0E0,0E0,0E0],"parents":[2147483647,0,0,1,1,2,2,3,3,4,4,5,5,6,6,7,7,8,8,9,9,10,10,11,11,12,12,13,13,14,14],"right_children":[2,4,6,8,10,12,14,16,18,20,22,24,26,28,30,-1,-1,-1,-1,-1,-1,-1,-1,-1,-1,-1,-1,-1,-1,-1,-1],"split_conditions":[1E-1,-4.5E-1,1.56E0,7.5E-1,7.5E-1,1E0,1E0,-1.09E0,3.5E-1,9E-2,1E0,-2E-2,1.6E-1,2.5E-1,0E0,3.946306E-2,2.1571465E-2,-1.3832612E-2,1.5381404E-2,-3.404235E-2,3.277199E-4,2.860609E-3,3.8213827E-2,-4.70802E-2,-9.573383E-3,5.4139614E-2,-3.625179E-3,-4.511813E-2,-3.0004956E-2,3.7179258E-2,-2.1291059E-2],"split_indices":[2,2,0,7,8,8,1,2,4,3,11,5,4,6,5,0,0,0,0,0,0,0,0,0,0,0,0,0,0,0,0],"split_type":[0,0,0,0,0,0,0,0,0,0,0,0,0,0,0,0,0,0,0,0,0,0,0,0,0,0,0,0,0,0,0],"sum_hessian":[1.9357E3,1.1698688E3,7.658311E2,5.7576514E2,5.9410364E2,3.0771146E2,4.581197E2,3.2677548E2,2.4898962E2,4.9702362E2,9.708001E1,2.84388E2,2.3323454E1,1.1768712E2,3.4043256E2,1.23435005E2,2.0334048E2,2.395156E1,2.2503807E2,1.1769263E1,4.8525436E2,6.366268E1,3.3417324E1,4.958355E0,2.7942966E2,6.69427E0,1.6629183E1,4.3615715E1,7.40714E1,3.8230245E0,3.3660953E2],"tree_param":{"num_deleted":"0","num_feature":"12","num_nodes":"31","size_leaf_vector":"1"}},{"base_weights":[3.086879E-3,2.877734E-2,-1.5536785E-1,-8.1821E-3,7.1597464E-2,-9.220509E-2,-3.3457842E-1,8.928354E-2,-3.909672E-2,4.1392196E-2,2.352572E-1,-1.3692033E-1,2.4790871E-1,-4.166102E-1,-8.821017E-2,-7.1198433E-3,2.0673534E-2,-1.2299428E-2,-2.0975221E-4,5.1194536E-3,-3.4122866E-2,1.0831123E-2,3.8205694E-2,3.681365E-3,-1.5591525E-2,5.1418774E-2,-3.250497E-3,-4.6007965E-2,-2.5034413E-2,1.2919007E-2,-4.1769493E-2],"categories":[],"categories_nodes":[],"categories_segments":[],"categories_sizes":[],"default_left":[0,0,0,0,0,0,0,0,0,0,0,0,0,0,0,0,0,0,0,0,0,0,0,0,0,0,0,0,0,0,0],"id":22,"left_children":[1,3,5,7,9,11,13,15,17,19,21,23,25,27,29,-1,-1,-1,-1,-1,-1,-1,-1,-1,-1,-1,-1,-1,-1,-1,-1],"loss_changes":[6.669794E0,2.2317023E0,2.5566316E0,2.2861202E0,3.2193162E0,2.6253989E0,1.1594768E0,5.5329995E0,2.4075642E0,5.8718867E0,2.393034E0,1.6129818E0,2.3222547E0,5.452857E-1,1.8236747E0,0E0,0E0,0E0,0E0,0E0,0E0,0E0,0E0,0E0,0E0,0E0,0E0,0E0,0E0,0E0,0E0],"parents":[2147483647,0,0,1,1,2,2,3,3,4,4,5,5,6,6,7,7,8,8,9,9,10,10,11,11,12,12,13,13,14,14],"right_children":[2,4,6,8,10,12,14,16,18,20,22,24,26,28,30,-1,-1,-1,-1,-1,-1,-1,-1,-1,-1,-1,-1,-1,-1,-1,-1],"split_conditions":[2.7E-1,0E0,2.27E0,8.4E-1,1.59E0,5E-1,1.38E0,7.5E-1,-8.3E-1,5.7E-1,2.5E-1,6.4E-1,7.7E-1,7.5E-1,1.62E0,-7.1198433E-3,2.0673534E-2,-1.2299428E-2,-2.0975221E-4,5.1194536E-3,-3.4122866E-2,1.0831123E-2,3.8205694E-2,3.681365E-3,-1.5591525E-2,5.1418774E-2,-3.250497E-3,-4.6007965E-2,-2.5034413E-2,1.2919007E-2,-4.1769493E-2],"split_indices":[5,5,0,0,1,8,1,7,2,3,8,1,1,7,1,0,0,0,0,0,0,0,0,0,0,0,0,0,0,0,0],"split_type":[0,0,0,0,0,0,0,0,0,0,0,0,0,0,0,0,0,0,0,0,0,0,0,0,0,0,0,0,0,0,0],"sum_hessian":[1.6363596E3,1.4087721E3,2.2758755E2,7.5656506E2,6.52207E2,1.693978E2,5.818975E1,1.8173007E2,5.74835E2,5.516471E2,1.00559845E2,1.5024263E2,1.9155178E1,4.3136005E1,1.5053748E1,8.8703636E1,9.3026436E1,1.3796721E2,4.368678E2,5.2705365E2,2.4593506E1,7.231459E1,2.8245258E1,3.6204567E1,1.14038055E2,7.5696473E0,1.1585531E1,1.5260832E1,2.7875172E1,9.953639E0,5.100109E0],"tree_param":{"num_deleted":"0","num_feature":"12","num_nodes":"31","size_leaf_vector":"1"}},{"base_weights":[-1.0829429E-3,-2.197239E-1,1.2606546E-1,-4.629474E-1,-1.9263111E-1,2.7904363E-2,2.8774625E-1,-4.8586968E-1,1.107912E-1,-1.1733933E-1,-2.4893196E-1,3.57391E-2,-4.5303163E-1,-1.2894536E-2,3.5231504E-1,-1.6151961E-2,-4.3897286E-2,-9.5558455E-3,2.3738293E-2,-1.7282546E-2,-3.7687127E-3,-2.2857072E-2,-8.29145E-4,4.811304E-2,2.3539092E-3,-8.19651E-3,-4.6252917E-2,3.5878026E-3,-2.5368385E-2,2.1732826E-2,3.497463E-2],"categories":[],"categories_nodes":[],"categories_segments":[],"categories_sizes":[],"default_left":[0,0,0,0,0,0,0,0,0,0,0,0,0,0,0,0,0,0,0,0,0,0,0,0,0,0,0,0,0,0,0],"id":23,"left_children":[1,3,5,7,9,11,13,15,17,19,21,23,25,27,29,-1,-1,-1,-1,-1,-1,-1,-1,-1,-1,-1,-1,-1,-1,-1,-1],"loss_changes":[6.1823654E1,5.299347E0,2.2308758E1,1.1223221E0,3.0969868E0,3.3171804E0,1.0314255E1,1.2867737E0,2.0392603E-1,2.1899219E0,3.6918411E0,3.065044E0,5.5999017E-1,1.6805555E0,2.8741188E0,0E0,0E0,0E0,0E0,0E0,0E0,0E0,0E0,0E0,0E0,0E0,0E0,0E0,0E0,0E0,0E0],"parents":[2147483647,0,0,1,1,2,2,3,3,4,4,5,5,6,6,7,7,8,8,9,9,10,10,11,11,12,12,13,13,14,14],"right_children":[2,4,6,8,10,12,14,16,18,20,22,24,26,28,30,-1,-1,-1,-1,-1,-1,-1,-1,-1,-1,-1,-1,-1,-1,-1,-1],"split_conditions":[-2.1E-1,-1.34E0,5.4E-1,1.41E0,5E-1,2.18E0,1.57E0,5E-2,1E0,8.4E-1,1.67E0,4.5E-1,2.5E-1,7.5E-1,1E0,-1.6151961E-2,-4.3897286E-2,-9.5558455E-3,2.3738293E-2,-1.7282546E-2,-3.7687127E-3,-2.2857072E-2,-8.29145E-4,4.811304E-2,2.3539092E-3,-8.19651E-3,-4.6252917E-2,3.5878026E-3,-2.5368385E-2,2.1732826E-2,3.497463E-2],"split_indices":[2,2,2,0,4,1,0,3,6,0,0,1,7,8,10,0,0,0,0,0,0,0,0,0,0,0,0,0,0,0,0],"split_type":[0,0,0,0,0,0,0,0,0,0,0,0,0,0,0,0,0,0,0,0,0,0,0,0,0,0,0,0,0,0,0],"sum_hessian":[2.2218882E3,8.167312E2,1.405157E3,8.0245514E1,7.3648566E2,8.7505707E2,5.300999E2,7.7309944E1,2.935574E0,3.1641895E2,4.200667E2,8.6194116E2,1.3115856E1,9.386277E1,4.3623718E2,1.4772641E1,6.25373E1,1.4713044E0,1.4642696E0,1.3068939E2,1.8572957E2,3.637825E2,5.6284225E1,8.476147E0,8.53465E2,3.9284241E0,9.187431E0,7.960546E1,1.4257312E1,2.2582446E2,2.104127E2],"tree_param":{"num_deleted":"0","num_feature":"12","num_nodes":"31","size_leaf_vector":"1"}},{"base_weights":[-1.5963843E-3,1.3620463E-1,-2.1569005E-1,2.5035772E-1,2.4627913E-2,-1.00430645E-1,-2.938624E-1,3.303349E-1,1.442354E-1,-6.542904E-3,1.81805E-1,-1.2380884E-1,1.753572E-1,-4.3549046E-1,-2.4442826E-1,3.6719747E-2,2.0030288E-2,2.728002E-3,1.934835E-2,-3.316379E-2,3.2303156E-4,2.6943863E-3,3.615032E-2,-4.623041E-2,-9.107091E-3,5.168978E-2,-3.4885788E-3,-4.418705E-2,-2.8853595E-2,3.551103E-2,-2.0304542E-2],"categories":[],"categories_nodes":[],"categories_segments":[],"categories_sizes":[],"default_left":[0,0,0,0,0,0,0,0,0,0,0,0,0,0,0,0,0,0,0,0,0,0,0,0,0,0,0,0,0,0,0],"id":24,"left_children":[1,3,5,7,9,11,13,15,17,19,21,23,25,27,29,-1,-1,-1,-1,-1,-1,-1,-1,-1,-1,-1,-1,-1,-1,-1,-1],"loss_changes":[5.6982452E1,1.4961008E1,6.785282E0,4.8813057E0,2.91811E0,2.0022695E0,3.045269E0,3.2838974E0,2.6941037E0,2.150701E0,3.9278944E0,1.2188802E0,2.5452824E0,8.078766E-1,2.2814808E0,0E0,0E0,0E0,0E0,0E0,0E0,0E0,0E0,0E0,0E0,0E0,0E0,0E0,0E0,0E0,0E0],"parents":[2147483647,0,0,1,1,2,2,3,3,4,4,5,5,6,6,7,7,8,8,9,9,10,10,11,11,12,12,13,13,14,14],"right_children":[2,4,6,8,10,12,14,16,18,20,22,24,26,28,30,-1,-1,-1,-1,-1,-1,-1,-1,-1,-1,-1,-1,-1,-1,-1,-1],"split_conditions":[1E-1,-4.5E-1,1.56E0,7.5E-1,7.5E-1,1E0,1E0,-1.09E0,2.1E-1,9E-2,1E0,-2E-2,1.6E-1,2.5E-1,0E0,3.6719747E-2,2.0030288E-2,2.728002E-3,1.934835E-2,-3.316379E-2,3.2303156E-4,2.6943863E-3,3.615032E-2,-4.623041E-2,-9.107091E-3,5.168978E-2,-3.4885788E-3,-4.418705E-2,-2.8853595E-2,3.551103E-2,-2.0304542E-2],"split_indices":[2,2,0,7,8,8,1,2,3,3,11,5,4,6,5,0,0,0,0,0,0,0,0,0,0,0,0,0,0,0,0],"split_type":[0,0,0,0,0,0,0,0,0,0,0,0,0,0,0,0,0,0,0,0,0,0,0,0,0,0,0,0,0,0,0],"sum_hessian":[1.9294607E3,1.1741104E3,7.5535034E2,5.7974005E2,5.943703E2,3.0618616E2,4.4916418E2,3.2938904E2,2.5035103E2,4.968042E2,9.756612E1,2.827674E2,2.3418772E1,1.1419314E2,3.3497104E2,1.2442671E2,2.0496231E2,1.1826819E2,1.3208284E2,1.1592903E1,4.8521127E2,6.3734764E1,3.3831352E1,4.8515797E0,2.779158E2,6.8153095E0,1.6603462E1,4.20856E1,7.210754E1,3.8799448E0,3.310911E2],"tree_param":{"num_deleted":"0","num_feature":"12","num_nodes":"31","size_leaf_vector":"1"}},{"base_weights":[3.653503E-3,2.7605359E-2,-1.4633214E-1,-7.889505E-3,6.860064E-2,-8.461125E-2,-3.2379532E-1,-1.4138991E-2,4.5069873E-1,3.9995044E-2,2.2220883E-1,-1.2815765E-1,2.4126501E-1,-4.062156E-1,-8.09522E-2,3.9643794E-4,-1.5407552E-2,7.424283E-2,2.7773497E-3,4.9156896E-3,-3.324114E-2,1.0212723E-2,3.5917673E-2,-5.455955E-3,-2.3727246E-2,4.8906956E-2,-2.841079E-3,-4.542469E-2,-2.4147458E-2,1.2933146E-2,-4.1145585E-2],"categories":[],"categories_nodes":[],"categories_segments":[],"categories_sizes":[],"default_left":[0,0,0,0,0,0,0,0,0,0,0,0,0,0,0,0,0,0,0,0,0,0,0,0,0,0,0,0,0,0,0],"id":25,"left_children":[1,3,5,7,9,11,13,15,17,19,21,23,25,27,29,-1,-1,-1,-1,-1,-1,-1,-1,-1,-1,-1,-1,-1,-1,-1,-1],"loss_changes":[5.879481E0,2.0539079E0,2.4411645E0,2.1764607E0,2.8689146E0,2.4230578E0,1.1240635E0,2.5497339E0,1.9952216E0,5.432243E0,2.1424088E0,1.4880786E0,2.0925446E0,5.522814E-1,1.7544882E0,0E0,0E0,0E0,0E0,0E0,0E0,0E0,0E0,0E0,0E0,0E0,0E0,0E0,0E0,0E0,0E0],"parents":[2147483647,0,0,1,1,2,2,3,3,4,4,5,5,6,6,7,7,8,8,9,9,10,10,11,11,12,12,13,13,14,14],"right_children":[2,4,6,8,10,12,14,16,18,20,22,24,26,28,30,-1,-1,-1,-1,-1,-1,-1,-1,-1,-1,-1,-1,-1,-1,-1,-1],"split_conditions":[2.7E-1,0E0,2.27E0,3E0,1.59E0,5E-1,1.38E0,2.35E0,3.1E-1,5.7E-1,2.5E-1,1.08E0,7.7E-1,7.5E-1,1.62E0,3.9643794E-4,-1.5407552E-2,7.424283E-2,2.7773497E-3,4.9156896E-3,-3.324114E-2,1.0212723E-2,3.5917673E-2,-5.455955E-3,-2.3727246E-2,4.8906956E-2,-2.841079E-3,-4.542469E-2,-2.4147458E-2,1.2933146E-2,-4.1145585E-2],"split_indices":[5,5,0,1,1,8,1,1,3,3,8,1,1,7,1,0,0,0,0,0,0,0,0,0,0,0,0,0,0,0,0],"split_type":[0,0,0,0,0,0,0,0,0,0,0,0,0,0,0,0,0,0,0,0,0,0,0,0,0,0,0,0,0,0,0],"sum_hessian":[1.634504E3,1.4101302E3,2.2437384E2,7.561993E2,6.5393097E2,1.675704E2,5.680344E1,7.469887E2,9.210543E0,5.523334E2,1.0159759E2,1.4835294E2,1.9217468E1,4.190743E1,1.4896013E1,6.756657E2,7.1323E1,3.7157688E0,5.494774E0,5.2831866E2,2.4014742E1,7.2804344E1,2.8793242E1,1.1044277E2,3.791016E1,7.7056823E0,1.1511786E1,1.4703198E1,2.720423E1,9.951644E0,4.9443703E0],"tree_param":{"num_deleted":"0","num_feature":"12","num_nodes":"31","size_leaf_vector":"1"}},{"base_weights":[-1.3065422E-3,-2.0761822E-1,1.18062034E-1,-4.4391677E-1,-1.816583E-1,4.180865E-2,3.0104864E-1,-4.6658722E-1,1.110323E-1,-1.0972323E-1,-2.3568822E-1,4.9097896E-2,-4.5245147E-1,1.6577123E-1,4.049415E-1,-1.4961359E-2,-4.233761E-2,-9.155254E-3,2.3319324E-2,-1.6318286E-2,-3.4316771E-3,-2.1689674E-2,-6.064783E-4,1.4477265E-3,1.2778935E-2,-7.845845E-3,-4.5953196E-2,1.8025247E-2,-1.9888274E-2,2.4605572E-2,3.7785217E-2],"categories":[],"categories_nodes":[],"categories_segments":[],"categories_sizes":[],"default_left":[0,0,0,0,0,0,0,0,0,0,0,0,0,0,0,0,0,0,0,0,0,0,0,0,0,0,0,0,0,0,0],"id":26,"left_children":[1,3,5,7,9,11,13,15,17,19,21,23,25,27,29,-1,-1,-1,-1,-1,-1,-1,-1,-1,-1,-1,-1,-1,-1,-1,-1],"loss_changes":[5.456532E1,4.9009094E0,1.9572065E1,1.0544062E0,2.8245697E0,3.59578E0,5.732979E0,1.2450581E0,1.9349037E-1,1.9844689E0,3.375988E0,3.3528905E0,5.709555E-1,4.520994E0,1.381504E0,0E0,0E0,0E0,0E0,0E0,0E0,0E0,0E0,0E0,0E0,0E0,0E0,0E0,0E0,0E0,0E0],"parents":[2147483647,0,0,1,1,2,2,3,3,4,4,5,5,6,6,7,7,8,8,9,9,10,10,11,11,12,12,13,13,14,14],"right_children":[2,4,6,8,10,12,14,16,18,20,22,24,26,28,30,-1,-1,-1,-1,-1,-1,-1,-1,-1,-1,-1,-1,-1,-1,-1,-1],"split_conditions":[-2.1E-1,-1.34E0,6.9E-1,1.41E0,5E-1,2.18E0,5.9E-1,5E-2,1E0,8.4E-1,1.67E0,1.71E0,2.5E-1,5E-1,1.1E0,-1.4961359E-2,-4.233761E-2,-9.155254E-3,2.3319324E-2,-1.6318286E-2,-3.4316771E-3,-2.1689674E-2,-6.064783E-4,1.4477265E-3,1.2778935E-2,-7.845845E-3,-4.5953196E-2,1.8025247E-2,-1.9888274E-2,2.4605572E-2,3.7785217E-2],"split_indices":[2,2,2,0,4,1,3,3,6,0,0,0,7,8,2,0,0,0,0,0,0,0,0,0,0,0,0,0,0,0,0],"split_type":[0,0,0,0,0,0,0,0,0,0,0,0,0,0,0,0,0,0,0,0,0,0,0,0,0,0,0,0,0,0,0],"sum_hessian":[2.2136633E3,8.1108264E2,1.4025808E3,7.869212E1,7.323905E2,9.9088995E2,4.1169086E2,7.575659E1,2.9355376E0,3.1544284E2,4.169477E2,9.7737646E2,1.3513484E1,1.7996133E2,2.317295E2,1.4595149E1,6.116144E1,1.4676429E0,1.4678947E0,1.3001424E2,1.854286E2,3.6072623E2,5.6221447E1,7.643632E2,2.1301326E2,3.921948E0,9.5915365E0,1.5774948E2,2.2211859E1,9.704312E1,1.3468639E2],"tree_param":{"num_deleted":"0","num_feature":"12","num_nodes":"31","size_leaf_vector":"1"}},{"base_weights":[-1.7949597E-3,1.2713996E-1,-2.054451E-1,2.3259464E-1,2.3510296E-2,-9.507268E-2,-2.813667E-1,3.0817446E-1,1.322236E-1,-6.3335486E-3,1.7330752E-1,-1.1774571E-1,1.6989844E-1,-4.223462E-1,-2.328537E-1,4.040087E-2,2.0919962E-2,-1.3875562E-2,1.3200641E-2,6.5599976E-4,-2.3755662E-2,2.5586584E-3,3.428419E-2,-4.546249E-2,-8.6385E-3,4.925383E-2,-3.2906304E-3,-4.3281853E-2,-2.7778745E-2,3.413872E-2,-1.9366546E-2],"categories":[],"categories_nodes":[],"categories_segments":[],"categories_sizes":[],"default_left":[0,0,0,0,0,0,0,0,0,0,0,0,0,0,0,0,0,0,0,0,0,0,0,0,0,0,0,0,0,0,0],"id":27,"left_children":[1,3,5,7,9,11,13,15,17,19,21,23,25,27,29,-1,-1,-1,-1,-1,-1,-1,-1,-1,-1,-1,-1,-1,-1,-1,-1],"loss_changes":[5.0545494E1,1.2875912E1,6.2266903E0,4.3902874E0,2.663828E0,1.8562014E0,2.9220734E0,2.9222794E0,2.5605068E0,2.1042523E0,3.5569355E0,1.1798348E0,2.330184E0,8.0903244E-1,2.1167488E0,0E0,0E0,0E0,0E0,0E0,0E0,0E0,0E0,0E0,0E0,0E0,0E0,0E0,0E0,0E0,0E0],"parents":[2147483647,0,0,1,1,2,2,3,3,4,4,5,5,6,6,7,7,8,8,9,9,10,10,11,11,12,12,13,13,14,14],"right_children":[2,4,6,8,10,12,14,16,18,20,22,24,26,28,30,-1,-1,-1,-1,-1,-1,-1,-1,-1,-1,-1,-1,-1,-1,-1,-1],"split_conditions":[1E-1,-4.5E-1,1.56E0,7.5E-1,7.5E-1,1E0,1E0,-1.3E0,3.5E-1,7.7E1,1E0,-2E-2,1.6E-1,2.5E-1,0E0,4.040087E-2,2.0919962E-2,-1.3875562E-2,1.3200641E-2,6.5599976E-4,-2.3755662E-2,2.5586584E-3,3.428419E-2,-4.546249E-2,-8.6385E-3,4.925383E-2,-3.2906304E-3,-4.3281853E-2,-2.7778745E-2,3.413872E-2,-1.9366546E-2],"split_indices":[2,2,0,7,8,8,1,2,4,9,11,5,4,6,5,0,0,0,0,0,0,0,0,0,0,0,0,0,0,0,0],"split_type":[0,0,0,0,0,0,0,0,0,0,0,0,0,0,0,0,0,0,0,0,0,0,0,0,0,0,0,0,0,0,0],"sum_hessian":[1.9229896E3,1.1777246E3,7.45265E2,5.831055E2,5.946191E2,3.0464056E2,4.4062445E2,3.314511E2,2.5165445E2,4.966334E2,9.79857E1,2.8113965E2,2.3500917E1,1.10833855E2,3.2979062E2,6.1648533E1,2.6980255E2,2.396106E1,2.2769339E2,4.7390512E2,2.2728258E1,6.3791077E1,3.4194622E1,4.7505107E0,2.7638913E2,6.9347563E0,1.656616E1,4.055459E1,7.027927E1,3.9261103E0,3.258645E2],"tree_param":{"num_deleted":"0","num_feature":"12","num_nodes":"31","size_leaf_vector":"1"}},{"base_weights":[4.205341E-3,2.6479665E-2,-1.3740408E-1,-7.4771885E-3,6.5569595E-2,-8.1112504E-2,-3.2284212E-1,-1.3540046E-2,4.3241215E-1,3.814653E-2,2.11933E-1,-1.19288385E-1,1.9541407E-1,-4.7367597E-1,-1.2815528E-1,3.657075E-4,-1.4780539E-2,6.977875E-2,2.9741796E-3,4.6829544E-3,-3.243496E-2,9.781351E-3,3.397021E-2,-1.3824893E-2,5.008009E-3,4.3391116E-2,-4.897571E-3,-2.7611775E-2,-4.4787407E-2,2.8744625E-2,-1.889929E-2],"categories":[],"categories_nodes":[],"categories_segments":[],"categories_sizes":[],"default_left":[0,0,0,0,0,0,0,0,0,0,0,0,0,0,0,0,0,0,0,0,0,0,0,0,0,0,0,0,0,0,0],"id":28,"left_children":[1,3,5,7,9,11,13,15,17,19,21,23,25,27,29,-1,-1,-1,-1,-1,-1,-1,-1,-1,-1,-1,-1,-1,-1,-1,-1],"loss_changes":[5.1564603E0,1.8752899E0,2.2932115E0,2.0240479E0,2.627671E0,1.8368104E0,1.4488769E0,2.3185523E0,1.7612454E0,5.037116E0,1.920145E0,1.4863718E0,1.922591E0,1.23455524E-1,1.3394912E0,0E0,0E0,0E0,0E0,0E0,0E0,0E0,0E0,0E0,0E0,0E0,0E0,0E0,0E0,0E0,0E0],"parents":[2147483647,0,0,1,1,2,2,3,3,4,4,5,5,6,6,7,7,8,8,9,9,10,10,11,11,12,12,13,13,14,14],"right_children":[2,4,6,8,10,12,14,16,18,20,22,24,26,28,30,-1,-1,-1,-1,-1,-1,-1,-1,-1,-1,-1,-1,-1,-1,-1,-1],"split_conditions":[2.7E-1,0E0,2.33E0,3E0,1.59E0,5E-1,1.21E0,2.35E0,3.1E-1,5.7E-1,2.5E-1,1.3E0,7.7E-1,1E0,2.4E0,3.657075E-4,-1.4780539E-2,6.977875E-2,2.9741796E-3,4.6829544E-3,-3.243496E-2,9.781351E-3,3.397021E-2,-1.3824893E-2,5.008009E-3,4.3391116E-2,-4.897571E-3,-2.7611775E-2,-4.4787407E-2,2.8744625E-2,-1.889929E-2],"split_indices":[5,5,0,1,1,8,1,1,3,3,8,2,1,9,0,0,0,0,0,0,0,0,0,0,0,0,0,0,0,0,0],"split_type":[0,0,0,0,0,0,0,0,0,0,0,0,0,0,0,0,0,0,0,0,0,0,0,0,0,0,0,0,0,0,0],"sum_hessian":[1.6326101E3,1.4114158E3,2.2119434E2,7.557315E2,6.5568427E2,1.7078749E2,5.0406853E1,7.4641315E2,9.318361E0,5.5328064E2,1.0240362E2,1.5056926E2,2.0218224E1,2.7594765E1,2.2812086E1,6.7589044E2,7.0522736E1,3.8391893E0,5.4791718E0,5.2979535E2,2.3485304E1,7.3143295E1,2.9260319E1,1.163746E2,3.419466E1,8.122685E0,1.2095539E1,1.308394E1,1.4510824E1,3.7183204E0,1.9093767E1],"tree_param":{"num_deleted":"0","num_feature":"12","num_nodes":"31","size_leaf_vector":"1"}},{"base_weights":[-1.5485451E-3,-1.9629858E-1,1.1057223E-1,-4.2609176E-1,-1.7141047E-1,2.4724372E-2,2.534039E-1,-4.486772E-1,1.1428007E-1,-9.164507E-2,-2.1549201E-1,6.047585E-2,-7.202252E-2,-1.7871367E-2,3.123496E-1,-1.3925042E-2,-4.088229E-2,2.3293158E-2,-8.738207E-3,-8.994114E-3,3.6427155E-2,-4.4631646E-3,-2.0673027E-2,5.409471E-3,-3.4925386E-2,1.7450888E-2,-1.0806835E-2,-5.0136253E-2,8.8541163E-4,1.7626705E-2,3.0680113E-2],"categories":[],"categories_nodes":[],"categories_segments":[],"categories_sizes":[],"default_left":[0,0,0,0,0,0,0,0,0,0,0,0,0,0,0,0,0,0,0,0,0,0,0,0,0,0,0,0,0,0,0],"id":29,"left_children":[1,3,5,7,9,11,13,15,17,19,21,23,25,27,29,-1,-1,-1,-1,-1,-1,-1,-1,-1,-1,-1,-1,-1,-1,-1,-1],"loss_changes":[4.819539E1,4.539074E0,1.7169678E1,1.0048666E0,2.5446167E0,3.034369E0,8.412598E0,1.1987085E0,1.8724239E-1,3.0216954E0,3.200224E0,2.3022926E0,4.363023E0,1.6771158E0,2.7435493E0,0E0,0E0,0E0,0E0,0E0,0E0,0E0,0E0,0E0,0E0,0E0,0E0,0E0,0E0,0E0,0E0],"parents":[2147483647,0,0,1,1,2,2,3,3,4,4,5,5,6,6,7,7,8,8,9,9,10,10,11,11,12,12,13,13,14,14],"right_children":[2,4,6,8,10,12,14,16,18,20,22,24,26,28,30,-1,-1,-1,-1,-1,-1,-1,-1,-1,-1,-1,-1,-1,-1,-1,-1],"split_conditions":[-2.1E-1,-1.34E0,5.4E-1,1.41E0,1.58E0,2.5E-1,1.57E0,5E-2,1.62E0,1.21E0,0E0,2.17E0,5E-1,2.3E-1,1E0,-1.3925042E-2,-4.088229E-2,2.3293158E-2,-8.738207E-3,-8.994114E-3,3.6427155E-2,-4.4631646E-3,-2.0673027E-2,5.409471E-3,-3.4925386E-2,1.7450888E-2,-1.0806835E-2,-5.0136253E-2,8.8541163E-4,1.7626705E-2,3.0680113E-2],"split_indices":[2,2,2,0,1,8,0,3,0,0,8,1,6,3,9,0,0,0,0,0,0,0,0,0,0,0,0,0,0,0,0],"split_type":[0,0,0,0,0,0,0,0,0,0,0,0,0,0,0,0,0,0,0,0,0,0,0,0,0,0,0,0,0,0,0],"sum_hessian":[2.2052068E3,8.054376E2,1.3997692E3,7.713414E1,7.283035E2,8.750189E2,5.247502E2,7.420245E1,2.9316843E0,2.603251E2,4.6797842E2,6.3919E2,2.3582893E2,9.379427E1,4.3095593E2,1.4431877E1,5.9770576E1,1.4675541E0,1.46413E0,2.5156206E2,8.76303E0,9.961705E1,3.6836136E2,6.3098663E2,8.203363E0,4.1665043E1,1.941639E2,3.3186674E0,9.047561E1,1.8971161E2,2.4124431E2],"tree_param":{"num_deleted":"0","num_feature":"12","num_nodes":"31","size_leaf_vector":"1"}},{"base_weights":[-2.0214317E-3,1.1868961E-1,-1.9569477E-1,2.1651219E-1,2.2153048E-2,-9.050528E-2,-2.6912385E-1,2.878001E-1,1.2177027E-1,-5.957909E-3,1.6239962E-1,-1.1236523E-1,1.624681E-1,-4.095727E-1,-2.214747E-1,3.2301355E-2,1.728875E-2,1.5645411E-3,1.6960396E-2,-3.2488234E-2,3.4471363E-4,2.1906984E-3,3.2364335E-2,-4.4709153E-2,-8.226111E-3,4.702875E-2,-3.3158886E-3,-4.2452157E-2,-2.6699772E-2,-1.8476365E-2,3.220226E-2],"categories":[],"categories_nodes":[],"categories_segments":[],"categories_sizes":[],"default_left":[0,0,0,0,0,0,0,0,0,0,0,0,0,0,0,0,0,0,0,0,0,0,0,0,0,0,0,0,0,0,0],"id":30,"left_children":[1,3,5,7,9,11,13,15,17,19,21,23,25,27,29,-1,-1,-1,-1,-1,-1,-1,-1,-1,-1,-1,-1,-1,-1,-1,-1],"loss_changes":[4.4846405E1,1.1154951E1,5.664633E0,3.928505E0,2.3502657E0,1.7009907E0,2.8086758E0,2.6907063E0,2.3358495E0,2.045025E0,3.2431297E0,1.137979E0,2.1593173E0,8.196869E-1,2.0194645E0,0E0,0E0,0E0,0E0,0E0,0E0,0E0,0E0,0E0,0E0,0E0,0E0,0E0,0E0,0E0,0E0],"parents":[2147483647,0,0,1,1,2,2,3,3,4,4,5,5,6,6,7,7,8,8,9,9,10,10,11,11,12,12,13,13,14,14],"right_children":[2,4,6,8,10,12,14,16,18,20,22,24,26,28,30,-1,-1,-1,-1,-1,-1,-1,-1,-1,-1,-1,-1,-1,-1,-1,-1],"split_conditions":[1E-1,-4.5E-1,1.56E0,7.5E-1,7.5E-1,1E0,1E0,-1.09E0,2.1E-1,9E-2,1E0,-2E-2,1.6E-1,2.5E-1,2.21E0,3.2301355E-2,1.728875E-2,1.5645411E-3,1.6960396E-2,-3.2488234E-2,3.4471363E-4,2.1906984E-3,3.2364335E-2,-4.4709153E-2,-8.226111E-3,4.702875E-2,-3.3158886E-3,-4.2452157E-2,-2.6699772E-2,-1.8476365E-2,3.220226E-2],"split_indices":[2,2,0,7,8,8,1,2,3,3,11,5,4,6,1,0,0,0,0,0,0,0,0,0,0,0,0,0,0,0,0],"split_type":[0,0,0,0,0,0,0,0,0,0,0,0,0,0,0,0,0,0,0,0,0,0,0,0,0,0,0,0,0,0,0],"sum_hessian":[1.9162811E3,1.1807443E3,7.3553687E2,5.858486E2,5.948957E2,3.0329282E2,4.3224405E2,3.3314105E2,2.5270749E2,4.9636255E2,9.853316E1,2.7968085E2,2.3611982E1,1.0757235E2,3.246717E2,1.25500114E2,2.0764095E2,1.19059425E2,1.3364807E2,1.1452479E1,4.8491006E2,6.397583E1,3.455733E1,4.645466E0,2.7503537E2,7.0409636E0,1.6571018E1,3.911486E1,6.845749E1,3.2043356E2,4.2381516E0],"tree_param":{"num_deleted":"0","num_feature":"12","num_nodes":"31","size_leaf_vector":"1"}},{"base_weights":[4.7901976E-3,2.5524557E-2,-1.2890272E-1,2.3099652E-2,5.4339033E-1,-9.483252E-2,-4.352454E-1,7.801274E-2,2.7753233E-3,6.797132E-1,2.2432556E-4,1.2934294E-1,-1.4848685E-1,9.5832795E-2,-5.132576E-1,2.4422565E-2,3.2038614E-3,1.1784835E-3,-1.7825004E-2,2.4401404E-2,7.094378E-2,-6.979027E-3,3.154976E-2,-9.767644E-3,-4.3932155E-2,-2.8809851E-2,4.10875E-2,-4.4550493E-2,-2.1799227E-2],"categories":[],"categories_nodes":[],"categories_segments":[],"categories_sizes":[],"default_left":[0,0,0,0,0,0,0,0,0,0,0,0,0,0,0,0,0,0,0,0,0,0,0,0,0,0,0,0,0],"id":31,"left_children":[1,3,5,7,9,11,13,15,17,19,-1,21,23,25,27,-1,-1,-1,-1,-1,-1,-1,-1,-1,-1,-1,-1,-1,-1],"loss_changes":[4.5262065E0,1.7623423E0,2.2469347E0,1.5710362E0,4.802705E-1,2.4076414E0,9.4672775E-1,3.2688205E0,2.777404E0,1.3463521E-1,0E0,2.266285E0,1.6321025E0,8.73992E-1,4.8301697E-2,0E0,0E0,0E0,0E0,0E0,0E0,0E0,0E0,0E0,0E0,0E0,0E0,0E0,0E0],"parents":[2147483647,0,0,1,1,2,2,3,3,4,4,5,5,6,6,7,7,8,8,9,9,11,11,12,12,13,13,14,14],"right_children":[2,4,6,8,10,12,14,16,18,20,-1,22,24,26,28,-1,-1,-1,-1,-1,-1,-1,-1,-1,-1,-1,-1,-1,-1],"split_conditions":[2.7E-1,2.56E0,5.6E-1,1.13E0,2.8E0,1.4E-1,6.7E-1,-1.1E-1,5.4E-1,8.6E-1,2.2432556E-4,6E-2,1.1E1,3.3E-1,3E-1,2.4422565E-2,3.2038614E-3,1.1784835E-3,-1.7825004E-2,2.4401404E-2,7.094378E-2,-6.979027E-3,3.154976E-2,-9.767644E-3,-4.3932155E-2,-2.8809851E-2,4.10875E-2,-4.4550493E-2,-2.1799227E-2],"split_indices":[5,0,5,1,0,4,3,2,2,3,0,4,9,1,4,0,0,0,0,0,0,0,0,0,0,0,0,0,0],"split_type":[0,0,0,0,0,0,0,0,0,0,0,0,0,0,0,0,0,0,0,0,0,0,0,0,0,0,0,0,0],"sum_hessian":[1.6306221E3,1.4123851E3,2.1823695E2,1.4068422E3,5.5429296E0,1.9757321E2,2.066373E1,3.7927185E2,1.0275703E3,4.2211056E0,1.3218241E0,3.7882797E1,1.5969041E2,2.61735E0,1.8046381E1,5.3279545E1,3.259923E2,9.7673975E2,5.0830616E1,2.3827329E0,1.8383728E0,2.1216E1,1.66668E1,1.5104594E2,8.644469E0,1.3174343E0,1.2999158E0,1.4166645E1,3.8797362E0],"tree_param":{"num_deleted":"0","num_feature":"12","num_nodes":"29","size_leaf_vector":"1"}},{"base_weights":[-1.7930398E-3,-1.8553354E-1,1.03491805E-1,-4.080314E-1,-1.61823E-1,3.6771756E-2,2.6566496E-1,-1.5974069E-1,-4.623207E-1,-9.626117E-2,-2.115164E-1,4.353835E-2,-4.2739552E-1,3.023411E-1,-7.1851596E-2,5.8204965E-3,-3.0828625E-2,-3.9432332E-2,9.358751E-3,6.314338E-2,-8.218244E-3,-1.9618837E-2,2.2018628E-4,1.2286227E-3,1.1540806E-2,-6.936717E-3,-4.3732822E-2,1.56854E-2,3.0416638E-2,-1.9878954E-2,3.843628E-2],"categories":[],"categories_nodes":[],"categories_segments":[],"categories_sizes":[],"default_left":[0,0,0,0,0,0,0,0,0,0,0,0,0,0,0,0,0,0,0,0,0,0,0,0,0,0,0,0,0,0,0],"id":32,"left_children":[1,3,5,7,9,11,13,15,17,19,21,23,25,27,29,-1,-1,-1,-1,-1,-1,-1,-1,-1,-1,-1,-1,-1,-1,-1,-1],"loss_changes":[4.252926E1,4.1588326E0,1.5112773E1,9.568701E-1,2.3428955E0,3.1323957E0,5.062765E0,8.2784903E-1,1.1599922E0,1.8826458E0,2.975809E0,2.773883E0,5.351467E-1,2.9666634E0,4.092125E0,0E0,0E0,0E0,0E0,0E0,0E0,0E0,0E0,0E0,0E0,0E0,0E0,0E0,0E0,0E0,0E0],"parents":[2147483647,0,0,1,1,2,2,3,3,4,4,5,5,6,6,7,7,8,8,9,9,10,10,11,11,12,12,13,13,14,14],"right_children":[2,4,6,8,10,12,14,16,18,20,22,24,26,28,30,-1,-1,-1,-1,-1,-1,-1,-1,-1,-1,-1,-1,-1,-1,-1,-1],"split_conditions":[-2.1E-1,-1.34E0,6.9E-1,5E-2,5E-1,2.18E0,5E-1,1E0,1.41E0,-1.25E0,1.67E0,1.71E0,2.5E-1,5.9E-1,2.27E0,5.8204965E-3,-3.0828625E-2,-3.9432332E-2,9.358751E-3,6.314338E-2,-8.218244E-3,-1.9618837E-2,2.2018628E-4,1.2286227E-3,1.1540806E-2,-6.936717E-3,-4.3732822E-2,1.56854E-2,3.0416638E-2,-1.9878954E-2,3.843628E-2],"split_indices":[2,2,2,3,4,1,8,6,0,2,0,0,7,3,0,0,0,0,0,0,0,0,0,0,0,0,0,0,0,0,0],"split_type":[0,0,0,0,0,0,0,0,0,0,0,0,0,0,0,0,0,0,0,0,0,0,0,0,0,0,0,0,0,0,0],"sum_hessian":[2.19646E3,7.998388E2,1.3966211E3,7.54657E1,7.243731E2,9.903894E2,4.062317E2,1.42474985E1,6.1218197E1,3.1358673E2,4.1078638E2,9.770522E2,1.333719E1,3.6650928E2,3.9722404E1,7.350443E0,6.897056E0,5.8290016E1,2.9281814E0,1.3958201E0,3.1219092E2,3.5480658E2,5.5979786E1,7.6435E2,2.1270224E2,3.9061322E0,9.431058E0,1.564722E2,2.1003708E2,3.0513748E1,9.208656E0],"tree_param":{"num_deleted":"0","num_feature":"12","num_nodes":"31","size_leaf_vector":"1"}},{"base_weights":[-2.1284267E-3,1.1124382E-1,-1.8664478E-1,2.0222025E-1,2.1149414E-2,-8.5978955E-2,-2.578622E-1,2.699199E-1,1.122479E-1,3.366265E-2,-2.859968E-1,-1.4692023E-1,6.962324E-4,-3.9787474E-1,-2.1100035E-1,3.0365579E-2,1.6184917E-2,-1.3618923E-2,1.1380333E-2,1.908386E-3,5.643005E-2,-2.7735995E-2,2.6027398E-2,-1.9589372E-2,-1.4306634E-3,1.5857093E-2,-8.320022E-3,-4.165985E-2,-2.5752937E-2,3.329815E-2,-1.76106E-2],"categories":[],"categories_nodes":[],"categories_segments":[],"categories_sizes":[],"default_left":[0,0,0,0,0,0,0,0,0,0,0,0,0,0,0,0,0,0,0,0,0,0,0,0,0,0,0,0,0,0,0],"id":33,"left_children":[1,3,5,7,9,11,13,15,17,19,21,23,25,27,29,-1,-1,-1,-1,-1,-1,-1,-1,-1,-1,-1,-1,-1,-1,-1,-1],"loss_changes":[3.9990288E1,9.70138E0,5.193756E0,3.5577374E0,2.3005366E0,1.6003172E0,2.7085152E0,2.4097958E0,2.182605E0,3.7622442E0,9.8260605E-1,2.2438893E0,2.6275403E0,8.1798935E-1,1.9303064E0,0E0,0E0,0E0,0E0,0E0,0E0,0E0,0E0,0E0,0E0,0E0,0E0,0E0,0E0,0E0,0E0],"parents":[2147483647,0,0,1,1,2,2,3,3,4,4,5,5,6,6,7,7,8,8,9,9,10,10,11,11,12,12,13,13,14,14],"right_children":[2,4,6,8,10,12,14,16,18,20,22,24,26,28,30,-1,-1,-1,-1,-1,-1,-1,-1,-1,-1,-1,-1,-1,-1,-1,-1],"split_conditions":[1E-1,-4.5E-1,1.56E0,7.5E-1,7.7E1,1E0,1E0,-1.09E0,3.5E-1,6.5E1,4.7E1,4E-1,8E-2,2.5E-1,0E0,3.0365579E-2,1.6184917E-2,-1.3618923E-2,1.1380333E-2,1.908386E-3,5.643005E-2,-2.7735995E-2,2.6027398E-2,-1.9589372E-2,-1.4306634E-3,1.5857093E-2,-8.320022E-3,-4.165985E-2,-2.5752937E-2,3.329815E-2,-1.76106E-2],"split_indices":[2,2,0,7,9,6,1,2,4,9,10,2,5,6,5,0,0,0,0,0,0,0,0,0,0,0,0,0,0,0,0],"split_type":[0,0,0,0,0,0,0,0,0,0,0,0,0,0,0,0,0,0,0,0,0,0,0,0,0,0,0,0,0,0,0],"sum_hessian":[1.9096772E3,1.1831267E3,7.265506E2,5.8806256E2,5.9506415E2,3.0195062E2,4.2459998E2,3.3442474E2,2.5363783E2,5.7262555E2,2.2438553E1,1.7688663E2,1.2506399E2,1.0459713E2,3.2000284E2,1.2579367E2,2.0863107E2,2.3906294E1,2.2973154E2,5.6540546E2,7.220095E0,2.0805544E1,1.6330097E0,1.0004712E2,7.683951E1,4.3016697E1,8.204729E1,3.7723114E1,6.687401E1,3.9525104E0,3.1605032E2],"tree_param":{"num_deleted":"0","num_feature":"12","num_nodes":"31","size_leaf_vector":"1"}},{"base_weights":[5.301928E-3,2.459742E-2,-1.2080865E-1,-8.214133E-3,6.2289007E-2,-8.7710984E-2,-4.2528498E-1,-1.4228396E-3,-3.850343E-1,3.6038056E-2,2.0163815E-1,1.2610412E-1,-1.3973561E-1,9.936581E-2,-5.051081E-1,-5.8473356E-4,3.3150733E-2,2.3138067E-2,-4.1225262E-2,4.3858103E-3,-3.1125572E-2,3.191414E-2,8.562664E-3,-6.57114E-3,3.0091628E-2,-9.107279E-3,-4.331781E-2,-2.8231436E-2,4.0143114E-2,-4.399966E-2,-2.099124E-2],"categories":[],"categories_nodes":[],"categories_segments":[],"categories_sizes":[],"default_left":[0,0,0,0,0,0,0,0,0,0,0,0,0,0,0,0,0,0,0,0,0,0,0,0,0,0,0,0,0,0,0],"id":34,"left_children":[1,3,5,7,9,11,13,15,17,19,21,23,25,27,29,-1,-1,-1,-1,-1,-1,-1,-1,-1,-1,-1,-1,-1,-1,-1,-1],"loss_changes":[3.9691412E0,1.7497916E0,2.14406E0,1.9368454E0,2.401156E0,2.2033792E0,9.281099E-1,1.8256481E0,1.3260583E0,4.455178E0,1.9012141E0,2.0605545E0,1.5873792E0,8.3298063E-1,5.570984E-2,0E0,0E0,0E0,0E0,0E0,0E0,0E0,0E0,0E0,0E0,0E0,0E0,0E0,0E0,0E0,0E0],"parents":[2147483647,0,0,1,1,2,2,3,3,4,4,5,5,6,6,7,7,8,8,9,9,10,10,11,11,12,12,13,13,14,14],"right_children":[2,4,6,8,10,12,14,16,18,20,22,24,26,28,30,-1,-1,-1,-1,-1,-1,-1,-1,-1,-1,-1,-1,-1,-1,-1,-1],"split_conditions":[2.7E-1,0E0,5.6E-1,-2E-2,1.59E0,1.4E-1,6.7E-1,3E0,1E0,5.7E-1,4.7E-1,6E-2,1.1E1,3.3E-1,3E-1,-5.8473356E-4,3.3150733E-2,2.3138067E-2,-4.1225262E-2,4.3858103E-3,-3.1125572E-2,3.191414E-2,8.562664E-3,-6.57114E-3,3.0091628E-2,-9.107279E-3,-4.331781E-2,-2.8231436E-2,4.0143114E-2,-4.399966E-2,-2.099124E-2],"split_indices":[5,5,5,5,1,4,3,1,1,3,4,4,9,1,4,0,0,0,0,0,0,0,0,0,0,0,0,0,0,0,0],"split_type":[0,0,0,0,0,0,0,0,0,0,0,0,0,0,0,0,0,0,0,0,0,0,0,0,0,0,0,0,0,0,0],"sum_hessian":[1.6289113E3,1.4134517E3,2.1545956E2,7.560616E2,6.573901E2,1.9549646E2,1.9963097E1,7.436626E2,1.2398986E1,5.542396E2,1.03150475E2,3.797984E1,1.5751662E2,2.6038742E0,1.7359222E1,7.342507E2,9.411923E0,1.8102407E0,1.0588745E1,5.316195E2,2.2620064E1,3.2389256E1,7.0761215E1,2.1088268E1,1.6891571E1,1.4918408E2,8.332535E0,1.2839739E0,1.3199003E0,1.3581497E1,3.7777262E0],"tree_param":{"num_deleted":"0","num_feature":"12","num_nodes":"31","size_leaf_vector":"1"}},{"base_weights":[-2.0904269E-3,-1.7486835E-1,9.6437156E-2,-3.9205343E-1,-1.5206711E-1,4.910072E-2,2.9955816E-1,-1.4944848E-1,-4.4589123E-1,-8.962694E-2,-1.9963351E-1,9.992494E-2,-1.9774243E-2,-1.2978363E-1,3.167495E-1,6.0649137E-3,-2.9716998E-2,-4.523612E-2,-2.1454778E-2,-1.4448817E-2,-2.0365238E-3,-1.8571615E-2,4.252398E-4,6.1528007E-3,2.673356E-2,1.8893864E-2,-3.4100031E-3,1.5312039E-2,-4.4372864E-2,1.7971804E-2,3.0507812E-2],"categories":[],"categories_nodes":[],"categories_segments":[],"categories_sizes":[],"default_left":[0,0,0,0,0,0,0,0,0,0,0,0,0,0,0,0,0,0,0,0,0,0,0,0,0,0,0,0,0,0,0],"id":35,"left_children":[1,3,5,7,9,11,13,15,17,19,21,23,25,27,29,-1,-1,-1,-1,-1,-1,-1,-1,-1,-1,-1,-1,-1,-1,-1,-1],"loss_changes":[3.7272743E1,3.8779716E0,1.3392229E1,9.118223E-1,2.1241837E0,3.9646764E0,1.9848156E0,7.8378856E-1,1.1402245E0,1.8267388E0,2.7235355E0,3.4868178E0,2.8261447E0,1.5865029E0,1.4225159E0,0E0,0E0,0E0,0E0,0E0,0E0,0E0,0E0,0E0,0E0,0E0,0E0,0E0,0E0,0E0,0E0],"parents":[2147483647,0,0,1,1,2,2,3,3,4,4,5,5,6,6,7,7,8,8,9,9,10,10,11,11,12,12,13,13,14,14],"right_children":[2,4,6,8,10,12,14,16,18,20,22,24,26,28,30,-1,-1,-1,-1,-1,-1,-1,-1,-1,-1,-1,-1,-1,-1,-1,-1],"split_conditions":[-2.1E-1,-1.34E0,8.9E-1,5E-2,5E-1,1E0,3.6E-1,1E0,2.44E0,8.4E-1,1.67E0,3E0,1.8E-1,1.32E0,1E0,6.0649137E-3,-2.9716998E-2,-4.523612E-2,-2.1454778E-2,-1.4448817E-2,-2.0365238E-3,-1.8571615E-2,4.252398E-4,6.1528007E-3,2.673356E-2,1.8893864E-2,-3.4100031E-3,1.5312039E-2,-4.4372864E-2,1.7971804E-2,3.0507812E-2],"split_indices":[2,2,2,3,4,6,3,6,1,0,0,10,3,0,9,0,0,0,0,0,0,0,0,0,0,0,0,0,0,0,0],"split_type":[0,0,0,0,0,0,0,0,0,0,0,0,0,0,0,0,0,0,0,0,0,0,0,0,0,0,0,0,0,0,0],"sum_hessian":[2.1875112E3,7.941374E2,1.3933738E3,7.3912796E1,7.202246E2,1.1310332E3,2.6234048E2,1.4109267E1,5.980353E1,3.126693E2,4.0755527E2,6.5053766E2,4.8049564E2,9.847862E0,2.5249263E2,7.3303127E0,6.778954E0,3.4446274E1,2.535726E1,1.285672E2,1.8410213E2,3.5164072E2,5.591456E1,5.9354877E2,5.6988842E1,3.8617104E1,4.4187854E2,5.9212413E0,3.9266214E0,1.0593356E2,1.4655905E2],"tree_param":{"num_deleted":"0","num_feature":"12","num_nodes":"31","size_leaf_vector":"1"}},{"base_weights":[-2.2880018E-3,9.9582136E-2,-1.8586546E-1,1.8843123E-1,1.6759854E-2,-8.142831E-2,-2.539167E-1,2.338879E-1,6.504702E-2,-1.1801484E-2,1.6172907E-1,2.4400903E-3,-1.47E-1,-3.8603577E-1,-2.0930977E-1,3.630185E-2,1.5679497E-2,-7.7323955E-3,9.970433E-3,-3.223077E-2,-1.8223931E-4,-2.144476E-3,2.3512306E-2,1.9595947E-2,-3.912556E-3,5.797198E-4,-1.8847894E-2,-4.088637E-2,-2.4778292E-2,-1.8793672E-2,-2.8720216E-3],"categories":[],"categories_nodes":[],"categories_segments":[],"categories_sizes":[],"default_left":[0,0,0,0,0,0,0,0,0,0,0,0,0,0,0,0,0,0,0,0,0,0,0,0,0,0,0,0,0,0,0],"id":36,"left_children":[1,3,5,7,9,11,13,15,17,19,21,23,25,27,29,-1,-1,-1,-1,-1,-1,-1,-1,-1,-1,-1,-1,-1,-1,-1,-1],"loss_changes":[3.5628387E1,9.013141E0,4.8114586E0,3.2996292E0,2.6321075E0,1.4836129E0,2.3425255E0,3.5066395E0,1.5584772E0,1.9790655E0,2.6149912E0,1.4978763E0,2.0705204E0,8.2071877E-1,1.3665152E0,0E0,0E0,0E0,0E0,0E0,0E0,0E0,0E0,0E0,0E0,0E0,0E0,0E0,0E0,0E0,0E0],"parents":[2147483647,0,0,1,1,2,2,3,3,4,4,5,5,6,6,7,7,8,8,9,9,10,10,11,11,12,12,13,13,14,14],"right_children":[2,4,6,8,10,12,14,16,18,20,22,24,26,28,30,-1,-1,-1,-1,-1,-1,-1,-1,-1,-1,-1,-1,-1,-1,-1,-1],"split_conditions":[1.4E-1,-4.5E-1,1.56E0,1E0,7.5E-1,1E0,1E0,-1.35E0,7.3E-1,9E-2,2.8E-1,0E0,1.6E-1,2.5E-1,5E-1,3.630185E-2,1.5679497E-2,-7.7323955E-3,9.970433E-3,-3.223077E-2,-1.8223931E-4,-2.144476E-3,2.3512306E-2,1.9595947E-2,-3.912556E-3,5.797198E-4,-1.8847894E-2,-4.088637E-2,-2.4778292E-2,-1.8793672E-2,-2.8720216E-3],"split_indices":[2,2,0,7,8,7,1,2,0,3,3,8,4,6,8,0,0,0,0,0,0,0,0,0,0,0,0,0,0,0,0],"split_type":[0,0,0,0,0,0,0,0,0,0,0,0,0,0,0,0,0,0,0,0,0,0,0,0,0,0,0,0,0,0,0],"sum_hessian":[1.9031636E3,1.2242594E3,6.789041E2,5.900247E2,6.3423474E2,2.6871228E2,4.101918E2,4.3051913E2,1.5950555E2,5.3061365E2,1.0362109E2,1.1832869E2,1.5038358E2,1.0160343E2,3.0858838E2,6.167402E1,3.6884512E2,4.278101E1,1.1672455E2,1.16321945E1,5.1898145E2,4.303412E1,6.058697E1,2.0017355E1,9.831133E1,5.5200344E1,9.5183235E1,3.6345966E1,6.525746E1,2.6856836E2,4.0020016E1],"tree_param":{"num_deleted":"0","num_feature":"12","num_nodes":"31","size_leaf_vector":"1"}},{"base_weights":[5.760453E-3,1.1096375E-2,-4.1648495E-1,2.3733284E-2,-8.0891974E-2,1.0074919E-1,-4.9786735E-1,3.4316233E-3,8.0958106E-2,1.23677075E-1,-1.3142231E-1,-2.7713843E-2,3.902093E-2,-4.3696683E-2,-2.5903153E-1,-2.6440655E-4,3.003684E-2,1.2240207E-2,-2.4672272E-3,-2.18857E-2,1.944842E-2,-8.486418E-3,-4.2717688E-2,-3.372029E-2,9.534057E-3],"categories":[],"categories_nodes":[],"categories_segments":[],"categories_sizes":[],"default_left":[0,0,0,0,0,0,0,0,0,0,0,0,0,0,0,0,0,0,0,0,0,0,0,0,0],"id":37,"left_children":[1,3,5,7,9,11,13,15,17,19,21,-1,-1,-1,23,-1,-1,-1,-1,-1,-1,-1,-1,-1,-1],"loss_changes":[3.673311E0,1.8722551E0,9.066043E-1,1.6440761E0,2.0274243E0,7.9160607E-1,6.343031E-2,2.6222699E0,2.989726E0,1.9193361E0,1.5399542E0,0E0,0E0,0E0,3.5069072E-1,0E0,0E0,0E0,0E0,0E0,0E0,0E0,0E0,0E0,0E0],"parents":[2147483647,0,0,1,1,2,2,3,3,4,4,5,5,6,6,7,7,8,8,9,9,10,10,14,14],"right_children":[2,4,6,8,10,12,14,16,18,20,22,-1,-1,-1,24,-1,-1,-1,-1,-1,-1,-1,-1,-1,-1],"split_conditions":[5.6E-1,2.7E-1,6.7E-1,4.2E-1,1.4E-1,3.3E-1,1.9E0,3.6E1,4E-1,1.32E0,1.1E1,-2.7713843E-2,3.902093E-2,-4.3696683E-2,9.1E-1,-2.6440655E-4,3.003684E-2,1.2240207E-2,-2.4672272E-3,-2.18857E-2,1.944842E-2,-8.486418E-3,-4.2717688E-2,-3.372029E-2,9.534057E-3],"split_indices":[5,5,3,3,4,1,2,10,2,0,9,0,0,0,1,0,0,0,0,0,0,0,0,0,0],"split_type":[0,0,0,0,0,0,0,0,0,0,0,0,0,0,0,0,0,0,0,0,0,0,0,0,0],"sum_hessian":[1.6273081E3,1.607962E3,1.934612E1,1.4144006E3,1.9356143E2,2.5977685E0,1.6748352E1,1.0447976E3,3.6960306E2,3.80541E1,1.5550732E2,1.2538689E0,1.3438996E0,1.2858738E1,3.889615E0,1.0271884E3,1.7609228E1,2.2453865E2,1.450644E2,8.497752E0,2.9556347E1,1.4748601E2,8.021322E0,2.6407225E0,1.2488925E0],"tree_param":{"num_deleted":"0","num_feature":"12","num_nodes":"25","size_leaf_vector":"1"}},{"base_weights":[-2.303919E-3,-8.2434334E-2,1.8733943E-1,-1.9430046E-1,-1.1770076E-2,-1.2853948E-2,2.2991157E-1,-3.962938E-1,-1.7007793E-1,-7.024193E-2,4.8474886E-2,1.745011E-1,-1.4843895E-1,2.6133904E-1,-2.475039E-2,-3.3443388E-2,2.4699256E-2,-1.3912009E-2,5.8358174E-2,1.3647868E-2,-8.29601E-3,5.298753E-4,1.5021796E-2,3.8164924E-3,3.6740284E-2,-2.651598E-2,1.3491864E-2,2.7573708E-2,1.7575284E-2,-7.547141E-3,5.2410543E-2],"categories":[],"categories_nodes":[],"categories_segments":[],"categories_sizes":[],"default_left":[0,0,0,0,0,0,0,0,0,0,0,0,0,0,0,0,0,0,0,0,0,0,0,0,0,0,0,0,0,0,0],"id":38,"left_children":[1,3,5,7,9,11,13,15,17,19,21,23,25,27,29,-1,-1,-1,-1,-1,-1,-1,-1,-1,-1,-1,-1,-1,-1,-1,-1],"loss_changes":[3.3146557E1,1.211859E1,5.5247345E0,2.836687E0,3.31745E0,2.9361129E0,4.282915E0,1.0920582E0,1.9551153E0,3.8680584E0,2.703547E0,1.7313132E0,3.9442258E0,1.5753174E0,2.8821175E0,0E0,0E0,0E0,0E0,0E0,0E0,0E0,0E0,0E0,0E0,0E0,0E0,0E0,0E0,0E0,0E0],"parents":[2147483647,0,0,1,1,2,2,3,3,4,4,5,5,6,6,7,7,8,8,9,9,10,10,11,11,12,12,13,13,14,14],"right_children":[2,4,6,8,10,12,14,16,18,20,22,24,26,28,30,-1,-1,-1,-1,-1,-1,-1,-1,-1,-1,-1,-1,-1,-1,-1,-1],"split_conditions":[4E-1,-4E-1,1.46E0,-1.35E0,1E0,1.28E0,5E-1,1.41E0,2.05E0,2.2E-1,1.6E-1,2.5E-1,1E0,-5E-1,5.6E-1,-3.3443388E-2,2.4699256E-2,-1.3912009E-2,5.8358174E-2,1.3647868E-2,-8.29601E-3,5.298753E-4,1.5021796E-2,3.8164924E-3,3.6740284E-2,-2.651598E-2,1.3491864E-2,2.7573708E-2,1.7575284E-2,-7.547141E-3,5.2410543E-2],"split_indices":[2,2,0,2,7,0,8,0,0,3,2,8,6,8,5,0,0,0,0,0,0,0,0,0,0,0,0,0,0,0,0],"split_type":[0,0,0,0,0,0,0,0,0,0,0,0,0,0,0,0,0,0,0,0,0,0,0,0,0,0,0,0,0,0,0],"sum_hessian":[2.1792236E3,1.5323302E3,6.468935E2,5.925443E2,9.397859E2,1.13563774E2,5.333297E2,6.180313E1,5.3074115E2,4.7682687E2,4.62959E2,4.7558758E1,6.600501E1,4.747191E2,5.8610638E1,6.0348587E1,1.454544E0,5.292989E2,1.4422846E0,5.7662098E1,4.191648E2,3.5680563E2,1.061534E2,3.3714054E1,1.3844704E1,4.182177E1,2.4183243E1,1.5576913E2,3.1894995E2,5.394988E1,4.660761E0],"tree_param":{"num_deleted":"0","num_feature":"12","num_nodes":"31","size_leaf_vector":"1"}},{"base_weights":[-2.4570492E-3,9.745895E-2,-1.6952412E-1,2.2595957E-1,4.8138246E-2,-7.722562E-2,-2.3653957E-1,1.3872732E-1,3.1481808E-1,1.13625E-1,1.2626487E-4,-1.3687488E-1,7.173409E-3,-3.7464735E-1,-1.9167776E-1,4.206401E-3,2.2016767E-2,4.069986E-2,1.672087E-2,3.7850584E-3,1.942571E-2,1.4691347E-3,-2.0454187E-2,-1.8556215E-2,-1.0339841E-3,1.5633762E-2,-7.507848E-3,-4.0117808E-2,-2.3874924E-2,-1.6087072E-2,3.1771455E-2],"categories":[],"categories_nodes":[],"categories_segments":[],"categories_sizes":[],"default_left":[0,0,0,0,0,0,0,0,0,0,0,0,0,0,0,0,0,0,0,0,0,0,0,0,0,0,0,0,0,0,0],"id":39,"left_children":[1,3,5,7,9,11,13,15,17,19,21,23,25,27,29,-1,-1,-1,-1,-1,-1,-1,-1,-1,-1,-1,-1,-1,-1,-1,-1],"loss_changes":[3.1695015E1,7.5194244E0,4.376972E0,2.5086899E0,2.7035997E0,1.5132498E0,2.4758224E0,1.9602015E0,3.2245922E0,3.1048145E0,2.3240187E0,2.0717463E0,2.4019423E0,8.146734E-1,1.8110285E0,0E0,0E0,0E0,0E0,0E0,0E0,0E0,0E0,0E0,0E0,0E0,0E0,0E0,0E0,0E0,0E0],"parents":[2147483647,0,0,1,1,2,2,3,3,4,4,5,5,6,6,7,7,8,8,9,9,10,10,11,11,12,12,13,13,14,14],"right_children":[2,4,6,8,10,12,14,16,18,20,22,24,26,28,30,-1,-1,-1,-1,-1,-1,-1,-1,-1,-1,-1,-1,-1,-1,-1,-1],"split_conditions":[1E-1,-8E-1,1.56E0,6.5E-1,7.5E-1,1E0,1E0,-9.6E-1,2.27E0,1E0,1.72E0,4E-1,8E-2,2.5E-1,2.21E0,4.206401E-3,2.2016767E-2,4.069986E-2,1.672087E-2,3.7850584E-3,1.942571E-2,1.4691347E-3,-2.0454187E-2,-1.8556215E-2,-1.0339841E-3,1.5633762E-2,-7.507848E-3,-4.0117808E-2,-2.3874924E-2,-1.6087072E-2,3.1771455E-2],"split_indices":[2,2,0,4,7,6,1,2,1,11,0,2,5,6,1,0,0,0,0,0,0,0,0,0,0,0,0,0,0,0,0],"split_type":[0,0,0,0,0,0,0,0,0,0,0,0,0,0,0,0,0,0,0,0,0,0,0,0,0,0,0,0,0,0,0],"sum_hessian":[1.8967484E3,1.1871681E3,7.095802E2,3.2828085E2,8.5888727E2,2.9939053E2,4.101897E2,1.6694878E2,1.6133208E2,3.627465E2,4.961408E2,1.7505098E2,1.2433955E2,9.8770874E1,3.1141882E2,1.0319657E2,6.3752193E1,5.5605865E1,1.05726204E2,2.4061423E2,1.22132256E2,4.6398825E2,3.215256E1,9.856999E1,7.648098E1,4.3096634E1,8.124291E1,3.497973E1,6.379114E1,3.0716812E2,4.2507205E0],"tree_param":{"num_deleted":"0","num_feature":"12","num_nodes":"31","size_leaf_vector":"1"}},{"base_weights":[6.1731664E-3,1.1243829E-2,-4.074716E-1,2.2931578E-2,-7.467883E-2,1.026085E-1,-4.9051192E-1,2.0630522E-2,5.096443E-1,2.3337018E-2,-1.7706998E-1,-2.7382702E-2,3.8477905E-2,-4.30629E-2,-2.4152553E-1,3.2461353E-2,1.4350795E-3,5.1301174E-2,-5.040079E-4,1.4175677E-2,-7.284874E-3,-2.1910224E-2,-2.808422E-3,-3.386591E-2,1.5805392E-2],"categories":[],"categories_nodes":[],"categories_segments":[],"categories_sizes":[],"default_left":[0,0,0,0,0,0,0,0,0,0,0,0,0,0,0,0,0,0,0,0,0,0,0,0,0],"id":40,"left_children":[1,3,5,7,9,11,13,15,17,19,21,-1,-1,-1,23,-1,-1,-1,-1,-1,-1,-1,-1,-1,-1],"loss_changes":[3.4167235E0,1.61661E0,8.8593245E-1,1.5756655E0,1.9389025E0,7.687671E-1,7.3856354E-2,1.4553001E0,4.5374393E-1,1.7653364E0,1.2878065E0,0E0,0E0,0E0,4.4867614E-1,0E0,0E0,0E0,0E0,0E0,0E0,0E0,0E0,0E0,0E0],"parents":[2147483647,0,0,1,1,2,2,3,3,4,4,5,5,6,6,7,7,8,8,9,9,10,10,14,14],"right_children":[2,4,6,8,10,12,14,16,18,20,22,-1,-1,-1,24,-1,-1,-1,-1,-1,-1,-1,-1,-1,-1],"split_conditions":[5.6E-1,2.7E-1,6.7E-1,2.56E0,2.1E-1,1E0,3E-1,-6.5E-1,2.8E0,1E0,1.25E0,-2.7382702E-2,3.8477905E-2,-4.30629E-2,7E-1,3.2461353E-2,1.4350795E-3,5.1301174E-2,-5.040079E-4,1.4175677E-2,-7.284874E-3,-2.1910224E-2,-2.808422E-3,-3.386591E-2,1.5805392E-2],"split_indices":[5,5,3,0,4,7,4,5,0,7,1,0,0,0,5,0,0,0,0,0,0,0,0,0,0],"split_type":[0,0,0,0,0,0,0,0,0,0,0,0,0,0,0,0,0,0,0,0,0,0,0,0,0],"sum_hessian":[1.6258029E3,1.6070753E3,1.8727505E1,1.4152914E3,1.9178387E2,2.5889688E0,1.6138536E1,1.4096693E3,5.6221743E0,9.837992E1,9.340395E1,1.2337056E0,1.355263E0,1.2565598E1,3.5729382E0,8.745605E0,1.4009237E3,4.285917E0,1.3362571E0,4.1719944E1,5.6659973E1,5.4981834E1,3.842212E1,2.5521712E0,1.020767E0],"tree_param":{"num_deleted":"0","num_feature":"12","num_nodes":"25","size_leaf_vector":"1"}},{"base_weights":[-2.47724E-3,-1.5663548E-1,8.4690705E-2,-3.7993884E-1,-1.3751833E-1,4.28054E-2,2.6765758E-1,-4.0177733E-1,2.4579562E-2,-4.1786496E-2,-1.6707687E-1,9.026207E-2,-2.1458037E-2,-1.261525E-1,2.8376698E-1,-1.031151E-2,-3.7902344E-2,-8.524996E-3,2.0731928E-2,-5.2251033E-3,-1.7482458E-2,5.49405E-3,2.4817275E-2,1.799839E-2,-3.4811397E-3,1.4350027E-2,-4.2502932E-2,1.5599075E-2,2.7733346E-2],"categories":[],"categories_nodes":[],"categories_segments":[],"categories_sizes":[],"default_left":[0,0,0,0,0,0,0,0,0,0,0,0,0,0,0,0,0,0,0,0,0,0,0,0,0,0,0,0,0],"id":41,"left_children":[1,3,5,7,9,11,13,15,-1,17,19,21,23,25,27,-1,-1,-1,-1,-1,-1,-1,-1,-1,-1,-1,-1,-1,-1],"loss_changes":[2.9194937E1,3.2978039E0,1.0624736E1,1.0436449E0,2.0429487E0,3.4497695E0,1.6747379E0,1.1151228E0,0E0,3.3852077E0,2.8823023E0,3.067274E0,2.6244748E0,1.4376733E0,1.320055E0,0E0,0E0,0E0,0E0,0E0,0E0,0E0,0E0,0E0,0E0,0E0,0E0,0E0,0E0],"parents":[2147483647,0,0,1,1,2,2,3,3,4,4,5,5,6,6,7,7,9,9,10,10,11,11,12,12,13,13,14,14],"right_children":[2,4,6,8,10,12,14,16,-1,18,20,22,24,26,28,-1,-1,-1,-1,-1,-1,-1,-1,-1,-1,-1,-1,-1,-1],"split_conditions":[-2.1E-1,-1.35E0,8.9E-1,1.41E0,0E0,1E0,3.6E-1,-6.4E-1,2.4579562E-2,2.17E0,1.58E0,3E0,1.8E-1,1.32E0,1E0,-1.031151E-2,-3.7902344E-2,-8.524996E-3,2.0731928E-2,-5.2251033E-3,-1.7482458E-2,5.49405E-3,2.4817275E-2,1.799839E-2,-3.4811397E-3,1.4350027E-2,-4.2502932E-2,1.5599075E-2,2.7733346E-2],"split_indices":[2,2,2,0,8,6,3,5,0,1,1,10,3,0,9,0,0,0,0,0,0,0,0,0,0,0,0,0,0],"split_type":[0,0,0,0,0,0,0,0,0,0,0,0,0,0,0,0,0,0,0,0,0,0,0,0,0,0,0,0,0],"sum_hessian":[2.170634E3,7.837535E2,1.3868805E3,6.0317963E1,7.2343555E2,1.1295375E3,2.5734302E2,5.886265E1,1.45531E0,1.7124255E2,5.52193E2,6.494978E2,4.800397E2,9.844855E0,2.4749817E2,1.2871301E1,4.5991352E1,1.4144304E2,2.9799517E1,1.862015E2,3.659915E2,5.9264716E2,5.6850613E1,3.8678436E1,4.4136127E2,5.9300284E0,3.914827E0,1.0433582E2,1.4316235E2],"tree_param":{"num_deleted":"0","num_feature":"12","num_nodes":"29","size_leaf_vector":"1"}},{"base_weights":[-2.5639806E-3,8.374124E-2,-1.7666611E-1,1.6555391E-1,1.1385881E-2,-1.420359E-1,-3.2101753E-1,2.0791742E-1,5.0672602E-2,-1.6554652E-2,1.5387517E-1,-1.5296197E-1,2.4715301E-1,-1.922315E-1,-4.3731263E-1,3.30523E-2,1.383189E-2,-6.756415E-3,9.32118E-3,6.2796765E-4,-1.8994957E-2,4.4396603E-3,2.6534673E-2,-1.4289651E-3,-1.4644327E-2,-3.1943735E-2,5.4223366E-2,-1.8635336E-2,6.405924E-2,-4.045991E-2,-1.9960817E-2],"categories":[],"categories_nodes":[],"categories_segments":[],"categories_sizes":[],"default_left":[0,0,0,0,0,0,0,0,0,0,0,0,0,0,0,0,0,0,0,0,0,0,0,0,0,0,0,0,0,0,0],"id":42,"left_children":[1,3,5,7,9,11,13,15,17,19,21,23,25,27,29,-1,-1,-1,-1,-1,-1,-1,-1,-1,-1,-1,-1,-1,-1,-1,-1],"loss_changes":[2.8437895E1,7.4885197E0,3.0899467E0,2.8793316E0,2.6801805E0,2.196597E0,1.7217121E0,3.0441704E0,1.4449185E0,3.0378094E0,1.9120579E0,2.0068083E0,4.236411E0,2.5713925E0,6.7802334E-1,0E0,0E0,0E0,0E0,0E0,0E0,0E0,0E0,0E0,0E0,0E0,0E0,0E0,0E0,0E0,0E0],"parents":[2147483647,0,0,1,1,2,2,3,3,4,4,5,5,6,6,7,7,8,8,9,9,10,10,11,11,12,12,13,13,14,14],"right_children":[2,4,6,8,10,12,14,16,18,20,22,24,26,28,30,-1,-1,-1,-1,-1,-1,-1,-1,-1,-1,-1,-1,-1,-1,-1,-1],"split_conditions":[1.6E-1,-4.5E-1,1.05E0,1E0,7.5E-1,1E0,1E0,-1.35E0,7.8E-1,1.76E0,1E0,1.6E-1,5.3E-1,1E0,1.43E0,3.30523E-2,1.383189E-2,-6.756415E-3,9.32118E-3,6.2796765E-4,-1.8994957E-2,4.4396603E-3,2.6534673E-2,-1.4289651E-3,-1.4644327E-2,-3.1943735E-2,5.4223366E-2,-1.8635336E-2,6.405924E-2,-4.045991E-2,-1.9960817E-2],"split_indices":[2,2,2,7,8,2,10,2,0,0,11,4,3,11,2,0,0,0,0,0,0,0,0,0,0,0,0,0,0,0,0],"split_type":[0,0,0,0,0,0,0,0,0,0,0,0,0,0,0,0,0,0,0,0,0,0,0,0,0,0,0,0,0,0,0],"sum_hessian":[1.8906042E3,1.2643597E3,6.2624445E2,5.927948E2,6.71565E2,5.0667584E2,1.1956863E2,4.3249762E2,1.602972E2,5.622065E2,1.093585E2,4.9343027E2,1.3245559E1,5.7996193E1,6.1572433E1,6.1465534E1,3.7103207E2,5.242426E1,1.0787294E2,5.071395E2,5.5066994E1,7.124918E1,3.8109306E1,9.0175766E1,4.0325452E2,5.324907E0,7.920652E0,5.6447357E1,1.5488372E0,4.3886837E1,1.7685595E1],"tree_param":{"num_deleted":"0","num_feature":"12","num_nodes":"31","size_leaf_vector":"1"}},{"base_weights":[6.588195E-3,1.141895E-2,-3.9909217E-1,3.9007384E-1,9.079004E-3,1.0355447E-1,-4.836958E-1,-1.3685837E-1,7.992458E-1,-4.5104645E-2,1.1811292E-2,-2.7154697E-2,3.806048E-2,-4.2617857E-2,-2.335616E-1,3.584051E-2,-3.801677E-2,5.3201434E-3,7.857355E-2,1.8192802E-3,-5.476448E-3,-3.3321857E-2,1.5597844E-2],"categories":[],"categories_nodes":[],"categories_segments":[],"categories_sizes":[],"default_left":[0,0,0,0,0,0,0,0,0,0,0,0,0,0,0,0,0,0,0,0,0,0,0],"id":43,"left_children":[1,3,5,7,9,11,13,15,17,-1,19,-1,-1,-1,21,-1,-1,-1,-1,-1,-1,-1,-1],"loss_changes":[3.1898768E0,1.4205089E0,8.646562E-1,2.2324986E0,2.508584E0,7.5229377E-1,7.8799486E-2,1.2336165E0,6.972399E-1,0E0,1.3980044E0,0E0,0E0,0E0,4.3376052E-1,0E0,0E0,0E0,0E0,0E0,0E0,0E0,0E0],"parents":[2147483647,0,0,1,1,2,2,3,3,4,4,5,5,6,6,7,7,8,8,10,10,14,14],"right_children":[2,4,6,8,10,12,14,16,18,-1,20,-1,-1,-1,22,-1,-1,-1,-1,-1,-1,-1,-1],"split_conditions":[5.6E-1,-6.5E-1,6.7E-1,7.5E-1,-6E-1,3.3E-1,3E-1,1.1E-1,1.1E-1,-4.5104645E-2,2.7E-1,-2.7154697E-2,3.806048E-2,-4.2617857E-2,7E-1,3.584051E-2,-3.801677E-2,5.3201434E-3,7.857355E-2,1.8192802E-3,-5.476448E-3,-3.3321857E-2,1.5597844E-2],"split_indices":[5,5,3,7,5,1,4,0,0,0,5,0,0,0,5,0,0,0,0,0,0,0,0],"split_type":[0,0,0,0,0,0,0,0,0,0,0,0,0,0,0,0,0,0,0,0,0,0,0],"sum_hessian":[1.6243767E3,1.606222E3,1.8154696E1,8.847205E0,1.5973748E3,2.5832298E0,1.55714655E1,4.158022E0,4.689183E0,6.607515E0,1.5907673E3,1.2196546E0,1.3635752E0,1.2074967E1,3.4964986E0,1.4051063E0,2.7529156E0,1.2091585E0,3.4800243E0,1.4007482E3,1.9001912E2,2.4699779E0,1.0265207E0],"tree_param":{"num_deleted":"0","num_feature":"12","num_nodes":"23","size_leaf_vector":"1"}},{"base_weights":[-2.7079058E-3,-7.0840016E-2,1.7266837E-1,-1.7390846E-1,-9.069563E-3,-1.0106277E-2,2.2588788E-1,-3.661794E-1,-1.5158834E-1,1.7796535E-2,-1.2816393E-1,1.5249127E-1,-8.104991E-2,1.4597999E-1,2.9052684E-1,-3.1040065E-2,2.4218809E-2,-1.2426901E-2,5.6785498E-2,5.9149828E-2,1.0956815E-3,1.2541167E-2,-1.444834E-2,6.0302047E-3,5.226819E-2,-1.1041055E-2,1.7365156E-2,-2.9870104E-3,1.6605202E-2,-1.451761E-2,2.4198761E-2],"categories":[],"categories_nodes":[],"categories_segments":[],"categories_sizes":[],"default_left":[0,0,0,0,0,0,0,0,0,0,0,0,0,0,0,0,0,0,0,0,0,0,0,0,0,0,0,0,0,0,0],"id":44,"left_children":[1,3,5,7,9,11,13,15,17,19,21,23,25,27,29,-1,-1,-1,-1,-1,-1,-1,-1,-1,-1,-1,-1,-1,-1,-1,-1],"loss_changes":[2.5862104E1,9.922648E0,5.893011E0,2.451065E0,3.1242013E0,1.5987589E0,2.3804054E0,9.939146E-1,1.8053236E0,2.3480787E0,2.713603E0,1.5777119E0,1.6670198E0,2.3985505E0,1.5127258E0,0E0,0E0,0E0,0E0,0E0,0E0,0E0,0E0,0E0,0E0,0E0,0E0,0E0,0E0,0E0,0E0],"parents":[2147483647,0,0,1,1,2,2,3,3,4,4,5,5,6,6,7,7,8,8,9,9,10,10,11,11,12,12,13,13,14,14],"right_children":[2,4,6,8,10,12,14,16,18,20,22,24,26,28,30,-1,-1,-1,-1,-1,-1,-1,-1,-1,-1,-1,-1,-1,-1,-1,-1],"split_conditions":[4.1E-1,-4E-1,1.57E0,-1.35E0,5E-1,1.28E0,1E0,1.41E0,2.05E0,4.5E-1,1E0,1.8E-1,9.3E-1,5.4E-1,4.7E-1,-3.1040065E-2,2.4218809E-2,-1.2426901E-2,5.6785498E-2,5.9149828E-2,1.0956815E-3,1.2541167E-2,-1.444834E-2,6.0302047E-3,5.226819E-2,-1.1041055E-2,1.7365156E-2,-2.9870104E-3,1.6605202E-2,-1.451761E-2,2.4198761E-2],"split_indices":[2,2,0,2,8,0,9,0,0,1,1,4,2,3,1,0,0,0,0,0,0,0,0,0,0,0,0,0,0,0,0],"split_type":[0,0,0,0,0,0,0,0,0,0,0,0,0,0,0,0,0,0,0,0,0,0,0,0,0,0,0,0,0,0,0],"sum_hessian":[2.1623943E3,1.5577992E3,6.04595E2,5.830774E2,9.7472186E2,1.3652611E2,4.6806888E2,5.904485E1,5.2403253E2,7.9600446E2,1.7871739E2,4.112384E1,9.540226E1,2.1076974E2,2.5729913E2,5.7586224E1,1.4586289E0,5.225785E2,1.4540346E0,3.4846866E0,7.925198E2,2.7470446E1,1.5124695E2,3.663407E1,4.489769E0,8.0548256E1,1.4854006E1,5.3100735E1,1.5766902E2,6.0071416E0,2.5129199E2],"tree_param":{"num_deleted":"0","num_feature":"12","num_nodes":"31","size_leaf_vector":"1"}},{"base_weights":[-2.6907455E-3,7.841609E-2,-1.6838883E-1,2.0052914E-1,3.5350945E-2,-1.3501577E-1,-3.0966145E-1,1.1856272E-1,2.844483E-1,9.379429E-3,1.4505057E-1,-1.4103773E-1,5.3058404E-1,-1.8238522E-1,-4.266083E-1,2.7976905E-3,2.0062083E-2,3.7644897E-2,1.46279335E-2,2.5290214E-3,-1.927067E-2,1.473116E-4,2.0947112E-2,-1.1732631E-2,3.2835834E-2,-2.7842805E-2,7.137631E-2,-1.7839648E-2,6.1814606E-2,-1.6230995E-2,-3.8662665E-2],"categories":[],"categories_nodes":[],"categories_segments":[],"categories_sizes":[],"default_left":[0,0,0,0,0,0,0,0,0,0,0,0,0,0,0,0,0,0,0,0,0,0,0,0,0,0,0,0,0,0,0],"id":45,"left_children":[1,3,5,7,9,11,13,15,17,19,21,23,25,27,29,-1,-1,-1,-1,-1,-1,-1,-1,-1,-1,-1,-1,-1,-1,-1,-1],"loss_changes":[2.5351076E1,6.653013E0,2.8808327E0,2.236043E0,2.6696002E0,2.0918303E0,1.6738615E0,1.8550899E0,2.9834795E0,4.231342E0,2.9999087E0,1.6083498E0,1.8108147E0,2.4257474E0,6.701126E-1,0E0,0E0,0E0,0E0,0E0,0E0,0E0,0E0,0E0,0E0,0E0,0E0,0E0,0E0,0E0,0E0],"parents":[2147483647,0,0,1,1,2,2,3,3,4,4,5,5,6,6,7,7,8,8,9,9,10,10,11,11,12,12,13,13,14,14],"right_children":[2,4,6,8,10,12,14,16,18,20,22,24,26,28,30,-1,-1,-1,-1,-1,-1,-1,-1,-1,-1,-1,-1,-1,-1,-1,-1],"split_conditions":[1.6E-1,-8E-1,1.05E0,6.5E-1,7.5E-1,4.2E-1,1E0,-9.6E-1,2.27E0,1.76E0,1.11E0,2.6E0,-5E-1,1E0,6.7E-1,2.7976905E-3,2.0062083E-2,3.7644897E-2,1.46279335E-2,2.5290214E-3,-1.927067E-2,1.473116E-4,2.0947112E-2,-1.1732631E-2,3.2835834E-2,-2.7842805E-2,7.137631E-2,-1.7839648E-2,6.1814606E-2,-1.6230995E-2,-3.8662665E-2],"split_indices":[2,2,2,4,8,5,10,2,1,0,0,0,8,11,1,0,0,0,0,0,0,0,0,0,0,0,0,0,0,0,0],"split_type":[0,0,0,0,0,0,0,0,0,0,0,0,0,0,0,0,0,0,0,0,0,0,0,0,0,0,0,0,0,0,0],"sum_hessian":[1.8843639E3,1.2654641E3,6.188998E2,3.289776E2,9.364866E2,5.0221613E2,1.1668363E2,1.676457E2,1.6133191E2,7.580927E2,1.7839384E2,4.9849417E2,3.7219806E0,5.70999E1,5.9583733E1,1.034832E2,6.4162506E1,5.568838E1,1.0564352E2,6.9704126E2,6.1051437E1,8.0589035E1,9.780481E1,4.9419193E2,4.3022256E0,1.0961814E0,2.6257992E0,5.5506237E1,1.5936632E0,1.2969062E1,4.661467E1],"tree_param":{"num_deleted":"0","num_feature":"12","num_nodes":"31","size_leaf_vector":"1"}},{"base_weights":[6.9022398E-3,1.1514113E-2,-3.913529E-1,8.501811E-3,2.931324E-1,1.0040195E-1,-4.7714403E-1,3.7694964E-1,6.1912225E-3,8.9874464E-1,8.673767E-2,-2.6952745E-2,3.7025597E-2,-4.2382468E-2,-2.2807406E-1,-1.0261852E-2,6.051055E-2,-4.44034E-2,7.062654E-4,2.7371556E-2,8.88068E-2,1.8123295E-2,-2.2933936E-2,-3.196078E-2,1.0938965E-2],"categories":[],"categories_nodes":[],"categories_segments":[],"categories_sizes":[],"default_left":[0,0,0,0,0,0,0,0,0,0,0,0,0,0,0,0,0,0,0,0,0,0,0,0,0],"id":46,"left_children":[1,3,5,7,9,11,13,15,17,19,21,-1,-1,-1,23,-1,-1,-1,-1,-1,-1,-1,-1,-1,-1],"loss_changes":[2.9874542E0,1.3602973E0,8.334689E-1,1.351697E0,2.0434122E0,7.25241E-1,8.9306116E-2,1.993932E0,2.3456972E0,1.15068436E-1,7.8351474E-1,0E0,0E0,0E0,3.3933628E-1,0E0,0E0,0E0,0E0,0E0,0E0,0E0,0E0,0E0,0E0],"parents":[2147483647,0,0,1,1,2,2,3,3,4,4,5,5,6,6,7,7,8,8,9,9,10,10,14,14],"right_children":[2,4,6,8,10,12,14,16,18,20,22,-1,-1,-1,24,-1,-1,-1,-1,-1,-1,-1,-1,-1,-1],"split_conditions":[5.6E-1,9.1E1,6.7E-1,-6.5E-1,9.9E1,1E0,1.9E0,7.5E-1,-6E-1,9.4E1,4.6E1,-2.6952745E-2,3.7025597E-2,-4.2382468E-2,9.1E-1,-1.0261852E-2,6.051055E-2,-4.44034E-2,7.062654E-4,2.7371556E-2,8.88068E-2,1.8123295E-2,-2.2933936E-2,-3.196078E-2,1.0938965E-2],"split_indices":[5,9,3,5,9,7,2,7,5,9,10,0,0,0,1,0,0,0,0,0,0,0,0,0,0],"split_type":[0,0,0,0,0,0,0,0,0,0,0,0,0,0,0,0,0,0,0,0,0,0,0,0,0],"sum_hessian":[1.6230781E3,1.6054578E3,1.7620432E1,1.5894862E3,1.5971595E1,2.5921166E0,1.5028316E1,8.895306E0,1.5805908E3,3.206996E0,1.2764599E1,1.2065814E0,1.3855352E0,1.1476015E1,3.5523012E0,4.09914E0,4.796166E0,6.412397E0,1.5741785E3,1.6033173E0,1.6036787E0,9.573608E0,3.19099E0,2.3519397E0,1.2003614E0],"tree_param":{"num_deleted":"0","num_feature":"12","num_nodes":"25","size_leaf_vector":"1"}},{"base_weights":[-2.8473802E-3,-6.679893E-2,1.6209848E-1,-1.7028277E-1,-1.2318798E-2,-1.1907272E-2,2.1311045E-1,-4.39485E-2,-2.0556778E-1,3.5751108E-2,-6.5577425E-2,3.2483846E-1,-4.507156E-2,1.3623972E-1,2.7557716E-1,-7.149795E-3,3.2294177E-2,-1.1881505E-2,-2.3182336E-2,2.5317874E-2,1.437762E-3,-3.2846185E-3,-3.1088235E-2,-1.0057647E-3,5.1080488E-2,-5.2681003E-2,-1.4574999E-3,-3.160504E-3,1.5647504E-2,-1.4557682E-2,2.2983203E-2],"categories":[],"categories_nodes":[],"categories_segments":[],"categories_sizes":[],"default_left":[0,0,0,0,0,0,0,0,0,0,0,0,0,0,0,0,0,0,0,0,0,0,0,0,0,0,0,0,0,0,0],"id":47,"left_children":[1,3,5,7,9,11,13,15,17,19,21,23,25,27,29,-1,-1,-1,-1,-1,-1,-1,-1,-1,-1,-1,-1,-1,-1,-1,-1],"loss_changes":[2.274527E1,8.757839E0,5.3500032E0,2.379428E0,2.611066E0,1.5504662E0,2.199726E0,2.4404447E0,1.9677792E0,2.6706038E0,3.815597E0,1.3258067E0,2.0647001E0,2.207198E0,1.424572E0,0E0,0E0,0E0,0E0,0E0,0E0,0E0,0E0,0E0,0E0,0E0,0E0,0E0,0E0,0E0,0E0],"parents":[2147483647,0,0,1,1,2,2,3,3,4,4,5,5,6,6,7,7,8,8,9,9,10,10,11,11,12,12,13,13,14,14],"right_children":[2,4,6,8,10,12,14,16,18,20,22,24,26,28,30,-1,-1,-1,-1,-1,-1,-1,-1,-1,-1,-1,-1,-1,-1,-1,-1],"split_conditions":[4.1E-1,-4.5E-1,1.57E0,0E0,1E0,1.2E-1,1E0,1.53E0,2.05E0,1.8E-1,5.3E-1,1E0,2.3E-1,5.4E-1,4.7E-1,-7.149795E-3,3.2294177E-2,-1.1881505E-2,-2.3182336E-2,2.5317874E-2,1.437762E-3,-3.2846185E-3,-3.1088235E-2,-1.0057647E-3,5.1080488E-2,-5.2681003E-2,-1.4574999E-3,-3.160504E-3,1.5647504E-2,-1.4557682E-2,2.2983203E-2],"split_indices":[2,2,0,8,6,5,9,0,1,4,4,6,3,3,1,0,0,0,0,0,0,0,0,0,0,0,0,0,0,0,0],"split_type":[0,0,0,0,0,0,0,0,0,0,0,0,0,0,0,0,0,0,0,0,0,0,0,0,0,0,0,0,0,0,0],"sum_hessian":[2.154221E3,1.5527828E3,6.0143805E2,5.3480554E2,1.01797723E3,1.3652098E2,4.6491708E2,1.1724996E2,4.175556E2,5.3522516E2,4.827521E2,1.145129E1,1.2506969E2,2.098542E2,2.5506287E2,1.071745E2,1.00754595E1,2.5057047E2,1.6698514E2,3.0877966E1,5.0434717E2,4.49741E2,3.3011097E1,5.9793053E0,5.4719853E0,4.2586904E0,1.2081099E2,5.306484E1,1.5678937E2,6.0036106E0,2.4905927E2],"tree_param":{"num_deleted":"0","num_feature":"12","num_nodes":"31","size_leaf_vector":"1"}},{"base_weights":[-2.844919E-3,7.3203124E-2,-1.6019098E-1,1.8803844E-1,3.2715436E-2,-1.2797837E-1,-2.986443E-1,1.10235386E-1,2.678931E-1,8.149797E-3,